{"learner":{"attributes":{"scikit_learn":"{\"_estimator_type\": \"regressor\"}"},"feature_names":["predicted_m","rate_of_change_m","residual_lag1","residual_lag2","month","hour","dayofweek","tide_phase","season","elev_mean","elev_std","elev_min","elev_max","elev_range","station_elev","slope_mean","slope_std","aspect_mean","low_elev_pct","flood_prone_area"],"feature_types":["float","float","float","float","int","int","int","int","int","float","float","float","float","float","float","float","float","float","float","float"],"gradient_booster":{"model":{"gbtree_model_param":{"num_parallel_tree":"1","num_trees":"800"},"iteration_indptr":[0,1,2,3,4,5,6,7,8,9,10,11,12,13,14,15,16,17,18,19,20,21,22,23,24,25,26,27,28,29,30,31,32,33,34,35,36,37,38,39,40,41,42,43,44,45,46,47,48,49,50,51,52,53,54,55,56,57,58,59,60,61,62,63,64,65,66,67,68,69,70,71,72,73,74,75,76,77,78,79,80,81,82,83,84,85,86,87,88,89,90,91,92,93,94,95,96,97,98,99,100,101,102,103,104,105,106,107,108,109,110,111,112,113,114,115,116,117,118,119,120,121,122,123,124,125,126,127,128,129,130,131,132,133,134,135,136,137,138,139,140,141,142,143,144,145,146,147,148,149,150,151,152,153,154,155,156,157,158,159,160,161,162,163,164,165,166,167,168,169,170,171,172,173,174,175,176,177,178,179,180,181,182,183,184,185,186,187,188,189,190,191,192,193,194,195,196,197,198,199,200,201,202,203,204,205,206,207,208,209,210,211,212,213,214,215,216,217,218,219,220,221,222,223,224,225,226,227,228,229,230,231,232,233,234,235,236,237,238,239,240,241,242,243,244,245,246,247,248,249,250,251,252,253,254,255,256,257,258,259,260,261,262,263,264,265,266,267,268,269,270,271,272,273,274,275,276,277,278,279,280,281,282,283,284,285,286,287,288,289,290,291,292,293,294,295,296,297,298,299,300,301,302,303,304,305,306,307,308,309,310,311,312,313,314,315,316,317,318,319,320,321,322,323,324,325,326,327,328,329,330,331,332,333,334,335,336,337,338,339,340,341,342,343,344,345,346,347,348,349,350,351,352,353,354,355,356,357,358,359,360,361,362,363,364,365,366,367,368,369,370,371,372,373,374,375,376,377,378,379,380,381,382,383,384,385,386,387,388,389,390,391,392,393,394,395,396,397,398,399,400,401,402,403,404,405,406,407,408,409,410,411,412,413,414,415,416,417,418,419,420,421,422,423,424,425,426,427,428,429,430,431,432,433,434,435,436,437,438,439,440,441,442,443,444,445,446,447,448,449,450,451,452,453,454,455,456,457,458,459,460,461,462,463,464,465,466,467,468,469,470,471,472,473,474,475,476,477,478,479,480,481,482,483,484,485,486,487,488,489,490,491,492,493,494,495,496,497,498,499,500,501,502,503,504,505,506,507,508,509,510,511,512,513,514,515,516,517,518,519,520,521,522,523,524,525,526,527,528,529,530,531,532,533,534,535,536,537,538,539,540,541,542,543,544,545,546,547,548,549,550,551,552,553,554,555,556,557,558,559,560,561,562,563,564,565,566,567,568,569,570,571,572,573,574,575,576,577,578,579,580,581,582,583,584,585,586,587,588,589,590,591,592,593,594,595,596,597,598,599,600,601,602,603,604,605,606,607,608,609,610,611,612,613,614,615,616,617,618,619,620,621,622,623,624,625,626,627,628,629,630,631,632,633,634,635,636,637,638,639,640,641,642,643,644,645,646,647,648,649,650,651,652,653,654,655,656,657,658,659,660,661,662,663,664,665,666,667,668,669,670,671,672,673,674,675,676,677,678,679,680,681,682,683,684,685,686,687,688,689,690,691,692,693,694,695,696,697,698,699,700,701,702,703,704,705,706,707,708,709,710,711,712,713,714,715,716,717,718,719,720,721,722,723,724,725,726,727,728,729,730,731,732,733,734,735,736,737,738,739,740,741,742,743,744,745,746,747,748,749,750,751,752,753,754,755,756,757,758,759,760,761,762,763,764,765,766,767,768,769,770,771,772,773,774,775,776,777,778,779,780,781,782,783,784,785,786,787,788,789,790,791,792,793,794,795,796,797,798,799,800],"tree_info":[0,0,0,0,0,0,0,0,0,0,0,0,0,0,0,0,0,0,0,0,0,0,0,0,0,0,0,0,0,0,0,0,0,0,0,0,0,0,0,0,0,0,0,0,0,0,0,0,0,0,0,0,0,0,0,0,0,0,0,0,0,0,0,0,0,0,0,0,0,0,0,0,0,0,0,0,0,0,0,0,0,0,0,0,0,0,0,0,0,0,0,0,0,0,0,0,0,0,0,0,0,0,0,0,0,0,0,0,0,0,0,0,0,0,0,0,0,0,0,0,0,0,0,0,0,0,0,0,0,0,0,0,0,0,0,0,0,0,0,0,0,0,0,0,0,0,0,0,0,0,0,0,0,0,0,0,0,0,0,0,0,0,0,0,0,0,0,0,0,0,0,0,0,0,0,0,0,0,0,0,0,0,0,0,0,0,0,0,0,0,0,0,0,0,0,0,0,0,0,0,0,0,0,0,0,0,0,0,0,0,0,0,0,0,0,0,0,0,0,0,0,0,0,0,0,0,0,0,0,0,0,0,0,0,0,0,0,0,0,0,0,0,0,0,0,0,0,0,0,0,0,0,0,0,0,0,0,0,0,0,0,0,0,0,0,0,0,0,0,0,0,0,0,0,0,0,0,0,0,0,0,0,0,0,0,0,0,0,0,0,0,0,0,0,0,0,0,0,0,0,0,0,0,0,0,0,0,0,0,0,0,0,0,0,0,0,0,0,0,0,0,0,0,0,0,0,0,0,0,0,0,0,0,0,0,0,0,0,0,0,0,0,0,0,0,0,0,0,0,0,0,0,0,0,0,0,0,0,0,0,0,0,0,0,0,0,0,0,0,0,0,0,0,0,0,0,0,0,0,0,0,0,0,0,0,0,0,0,0,0,0,0,0,0,0,0,0,0,0,0,0,0,0,0,0,0,0,0,0,0,0,0,0,0,0,0,0,0,0,0,0,0,0,0,0,0,0,0,0,0,0,0,0,0,0,0,0,0,0,0,0,0,0,0,0,0,0,0,0,0,0,0,0,0,0,0,0,0,0,0,0,0,0,0,0,0,0,0,0,0,0,0,0,0,0,0,0,0,0,0,0,0,0,0,0,0,0,0,0,0,0,0,0,0,0,0,0,0,0,0,0,0,0,0,0,0,0,0,0,0,0,0,0,0,0,0,0,0,0,0,0,0,0,0,0,0,0,0,0,0,0,0,0,0,0,0,0,0,0,0,0,0,0,0,0,0,0,0,0,0,0,0,0,0,0,0,0,0,0,0,0,0,0,0,0,0,0,0,0,0,0,0,0,0,0,0,0,0,0,0,0,0,0,0,0,0,0,0,0,0,0,0,0,0,0,0,0,0,0,0,0,0,0,0,0,0,0,0,0,0,0,0,0,0,0,0,0,0,0,0,0,0,0,0,0,0,0,0,0,0,0,0,0,0,0,0,0,0,0,0,0,0,0,0,0,0,0,0,0,0,0,0,0,0,0,0,0,0,0,0,0,0,0,0,0,0,0,0,0,0,0,0,0,0,0,0,0,0,0,0,0,0,0,0,0,0,0,0,0,0,0,0,0,0,0,0,0,0,0,0,0,0,0,0,0,0,0,0,0,0,0,0,0,0,0,0,0,0,0,0,0,0,0,0,0,0,0,0,0,0,0,0,0,0,0,0,0,0,0,0,0,0,0,0,0,0,0,0,0,0,0,0,0,0,0,0,0,0,0,0,0,0,0,0,0,0,0,0,0,0,0,0,0,0,0,0,0,0,0,0,0,0,0,0,0,0,0,0,0,0,0,0,0,0,0,0,0,0,0,0],"trees":[{"base_weights":[-3.8107497E-5,-1.00598775E-1,1.3298333E-1,-2.0630191E-1,-5.246689E-2,8.801166E-2,2.945804E-1,-3.1964802E-3,-1.7467537E-3,-9.0240926E-4,-1.9042268E-4,5.3801306E-4,1.3689356E-3,2.5469318E-3,4.9224645E-3],"categories":[],"categories_nodes":[],"categories_segments":[],"categories_sizes":[],"default_left":[0,0,0,0,0,0,0,0,0,0,0,0,0,0,0],"id":0,"left_children":[1,3,5,7,9,11,13,-1,-1,-1,-1,-1,-1,-1,-1],"loss_changes":[4.419622E4,9.57277E3,1.033702E4,2.110287E3,1.6323372E3,1.8607891E3,2.441412E3,0E0,0E0,0E0,0E0,0E0,0E0,0E0,0E0],"parents":[2147483647,0,0,1,1,2,2,3,3,4,4,5,5,6,6],"right_children":[2,4,6,8,10,12,14,-1,-1,-1,-1,-1,-1,-1,-1],"split_conditions":[1.34E-1,-1.2E-2,3.09E-1,-1.33E-1,6.3E-2,2.13E-1,4.92E-1,-3.1964802E-3,-1.7467537E-3,-9.0240926E-4,-1.9042268E-4,5.3801306E-4,1.3689356E-3,2.5469318E-3,4.9224645E-3],"split_indices":[2,2,2,2,2,2,2,0,0,0,0,0,0,0,0],"split_type":[0,0,0,0,0,0,0,0,0,0,0,0,0,0,0],"sum_hessian":[3.303962E6,1.881556E6,1.422406E6,5.887E5,1.292856E6,1.112738E6,3.09668E5,1.28426E5,4.60274E5,6.06938E5,6.85918E5,6.54608E5,4.5813E5,2.57674E5,5.1994E4],"tree_param":{"num_deleted":"0","num_feature":"20","num_nodes":"15","size_leaf_vector":"1"}},{"base_weights":[-3.6956124E-5,-1.00760326E-1,1.3015532E-1,-2.0773466E-1,-5.4504246E-2,8.450875E-2,2.8654766E-1,-3.2413441E-3,-1.7773254E-3,-9.2664605E-4,-2.1266761E-4,5.09179E-4,1.3189068E-3,2.4837393E-3,4.8801224E-3],"categories":[],"categories_nodes":[],"categories_segments":[],"categories_sizes":[],"default_left":[0,0,0,0,0,0,0,0,0,0,0,0,0,0,0],"id":1,"left_children":[1,3,5,7,9,11,13,-1,-1,-1,-1,-1,-1,-1,-1],"loss_changes":[4.331687E4,9.215551E3,1.0285873E4,1.9633066E3,1.6491055E3,1.7751357E3,2.50342E3,0E0,0E0,0E0,0E0,0E0,0E0,0E0,0E0],"parents":[2147483647,0,0,1,1,2,2,3,3,4,4,5,5,6,6],"right_children":[2,4,6,8,10,12,14,-1,-1,-1,-1,-1,-1,-1,-1],"split_conditions":[1.32E-1,-1.6E-2,3.04E-1,-1.41E-1,6E-2,2.1E-1,4.92E-1,-3.2413441E-3,-1.7773254E-3,-9.2664605E-4,-2.1266761E-4,5.09179E-4,1.3189068E-3,2.4837393E-3,4.8801224E-3],"split_indices":[2,2,2,2,2,2,2,0,0,0,0,0,0,0,0],"split_type":[0,0,0,0,0,0,0,0,0,0,0,0,0,0,0],"sum_hessian":[3.303249E6,1.862401E6,1.440848E6,5.62207E5,1.300194E6,1.115319E6,3.25529E5,1.15211E5,4.46996E5,6.05272E5,6.94922E5,6.5264E5,4.62679E5,2.73675E5,5.1854E4],"tree_param":{"num_deleted":"0","num_feature":"20","num_nodes":"15","size_leaf_vector":"1"}},{"base_weights":[-4.80135E-5,-9.6937425E-2,1.3276063E-1,-1.9894135E-1,-4.8413705E-2,9.0277895E-2,2.9696327E-1,-3.0691107E-3,-1.6682225E-3,-8.45844E-4,-1.529546E-4,5.684173E-4,1.4060162E-3,2.6219625E-3,5.182845E-3],"categories":[],"categories_nodes":[],"categories_segments":[],"categories_sizes":[],"default_left":[0,0,0,0,0,0,0,0,0,0,0,0,0,0,0],"id":2,"left_children":[1,3,5,7,9,11,13,-1,-1,-1,-1,-1,-1,-1,-1],"loss_changes":[4.250733E4,9.453676E3,9.720119E3,2.135121E3,1.5504404E3,1.8626807E3,2.203666E3,0E0,0E0,0E0,0E0,0E0,0E0,0E0,0E0],"parents":[2147483647,0,0,1,1,2,2,3,3,4,4,5,5,6,6],"right_children":[2,4,6,8,10,12,14,-1,-1,-1,-1,-1,-1,-1,-1],"split_conditions":[1.37E-1,-8E-3,3.17E-1,-1.26E-1,6.7E-2,2.19E-1,5.23E-1,-3.0691107E-3,-1.6682225E-3,-8.45844E-4,-1.529546E-4,5.684173E-4,1.4060162E-3,2.6219625E-3,5.182845E-3],"split_indices":[2,2,2,2,2,2,2,0,0,0,0,0,0,0,0],"split_type":[0,0,0,0,0,0,0,0,0,0,0,0,0,0,0],"sum_hessian":[3.303398E6,1.909985E6,1.393413E6,6.15697E5,1.294288E6,1.107008E6,2.86405E5,1.41163E5,4.74534E5,6.18634E5,6.75654E5,6.65102E5,4.41906E5,2.47524E5,3.8881E4],"tree_param":{"num_deleted":"0","num_feature":"20","num_nodes":"15","size_leaf_vector":"1"}},{"base_weights":[3.646066E-5,-9.933383E-2,1.2690058E-1,-2.0547856E-1,-5.4689534E-2,8.2276545E-2,2.809701E-1,-3.2671597E-3,-1.776865E-3,-9.3269197E-4,-2.2713203E-4,4.851744E-4,1.2813966E-3,2.3796817E-3,4.533376E-3],"categories":[],"categories_nodes":[],"categories_segments":[],"categories_sizes":[],"default_left":[0,0,0,0,0,0,0,0,0,0,0,0,0,0,0],"id":3,"left_children":[1,3,5,7,9,11,13,-1,-1,-1,-1,-1,-1,-1,-1],"loss_changes":[4.1650223E4,8.77942E3,9.977104E3,1.8481699E3,1.6088584E3,1.7422334E3,2.4156191E3,0E0,0E0,0E0,0E0,0E0,0E0,0E0,0E0],"parents":[2147483647,0,0,1,1,2,2,3,3,4,4,5,5,6,6],"right_children":[2,4,6,8,10,12,14,-1,-1,-1,-1,-1,-1,-1,-1],"split_conditions":[1.31E-1,-1.8E-2,3.04E-1,-1.5E-1,5.7E-2,2.08E-1,4.67E-1,-3.2671597E-3,-1.776865E-3,-9.3269197E-4,-2.2713203E-4,4.851744E-4,1.2813966E-3,2.3796817E-3,4.533376E-3],"split_indices":[2,2,2,2,2,2,2,0,0,0,0,0,0,0,0],"split_type":[0,0,0,0,0,0,0,0,0,0,0,0,0,0,0],"sum_hessian":[3.30386E6,1.852686E6,1.451174E6,5.48526E5,1.30416E6,1.12526E6,3.25914E5,1.02291E5,4.46235E5,5.91051E5,7.13109E5,6.48161E5,4.77099E5,2.60842E5,6.5072E4],"tree_param":{"num_deleted":"0","num_feature":"20","num_nodes":"15","size_leaf_vector":"1"}},{"base_weights":[-4.966187E-6,-9.583289E-2,1.2828626E-1,-1.9366322E-1,-4.8597265E-2,8.596746E-2,2.8654286E-1,-2.982518E-3,-1.6259804E-3,-8.310811E-4,-1.6141737E-4,5.277701E-4,1.3376652E-3,2.4705282E-3,4.734385E-3],"categories":[],"categories_nodes":[],"categories_segments":[],"categories_sizes":[],"default_left":[0,0,0,0,0,0,0,0,0,0,0,0,0,0,0],"id":4,"left_children":[1,3,5,7,9,11,13,-1,-1,-1,-1,-1,-1,-1,-1],"loss_changes":[4.0607934E4,8.737406E3,9.458646E3,2.0002812E3,1.4282112E3,1.7678721E3,2.1991426E3,0E0,0E0,0E0,0E0,0E0,0E0,0E0,0E0],"parents":[2147483647,0,0,1,1,2,2,3,3,4,4,5,5,6,6],"right_children":[2,4,6,8,10,12,14,-1,-1,-1,-1,-1,-1,-1,-1],"split_conditions":[1.35E-1,-8E-3,3.13E-1,-1.26E-1,6.7E-2,2.15E-1,4.92E-1,-2.982518E-3,-1.6259804E-3,-8.310811E-4,-1.6141737E-4,5.277701E-4,1.3376652E-3,2.4705282E-3,4.734385E-3],"split_indices":[3,3,3,3,3,3,3,0,0,0,0,0,0,0,0],"split_type":[0,0,0,0,0,0,0,0,0,0,0,0,0,0,0],"sum_hessian":[3.303099E6,1.890774E6,1.412325E6,6.15663E5,1.275111E6,1.114344E6,2.97981E5,1.40987E5,4.74676E5,6.17987E5,6.57124E5,6.57674E5,4.5667E5,2.46004E5,5.1977E4],"tree_param":{"num_deleted":"0","num_feature":"20","num_nodes":"15","size_leaf_vector":"1"}},{"base_weights":[-2.1137046E-5,-9.296571E-2,1.3029651E-1,-1.8982238E-1,-4.4458788E-2,9.009256E-2,2.9342398E-1,-2.9179226E-3,-1.5754867E-3,-7.837943E-4,-1.20027726E-4,5.777421E-4,1.4060345E-3,2.5838928E-3,5.036128E-3],"categories":[],"categories_nodes":[],"categories_segments":[],"categories_sizes":[],"default_left":[0,0,0,0,0,0,0,0,0,0,0,0,0,0,0],"id":5,"left_children":[1,3,5,7,9,11,13,-1,-1,-1,-1,-1,-1,-1,-1],"loss_changes":[4.0016953E4,9.060195E3,9.020281E3,2.1176953E3,1.414615E3,1.8012793E3,2.0024824E3,0E0,0E0,0E0,0E0,0E0,0E0,0E0,0E0],"parents":[2147483647,0,0,1,1,2,2,3,3,4,4,5,5,6,6],"right_children":[2,4,6,8,10,12,14,-1,-1,-1,-1,-1,-1,-1,-1],"split_conditions":[1.39E-1,-4E-3,3.22E-1,-1.19E-1,7.1E-2,2.23E-1,5.23E-1,-2.9179226E-3,-1.5754867E-3,-7.837943E-4,-1.20027726E-4,5.777421E-4,1.4060345E-3,2.5838928E-3,5.036128E-3],"split_indices":[2,2,2,2,2,2,2,0,0,0,0,0,0,0,0],"split_type":[0,0,0,0,0,0,0,0,0,0,0,0,0,0,0],"sum_hessian":[3.303821E6,1.928433E6,1.375388E6,6.43505E5,1.284928E6,1.103439E6,2.71949E5,1.54704E5,4.88801E5,6.28287E5,6.56641E5,6.729E5,4.30539E5,2.33098E5,3.8851E4],"tree_param":{"num_deleted":"0","num_feature":"20","num_nodes":"15","size_leaf_vector":"1"}},{"base_weights":[5.362421E-6,-9.811486E-2,1.2099091E-1,-2.0473173E-1,-5.660195E-2,7.618518E-2,2.662308E-1,-3.271924E-3,-1.7873988E-3,-9.4897527E-4,-2.515632E-4,4.2552693E-4,1.1798756E-3,2.2633534E-3,4.4024987E-3],"categories":[],"categories_nodes":[],"categories_segments":[],"categories_sizes":[],"default_left":[0,0,0,0,0,0,0,0,0,0,0,0,0,0,0],"id":6,"left_children":[1,3,5,7,9,11,13,-1,-1,-1,-1,-1,-1,-1,-1],"loss_changes":[3.9223234E4,8.0749453E3,9.628855E3,1.6273828E3,1.581333E3,1.5898032E3,2.4217734E3,0E0,0E0,0E0,0E0,0E0,0E0,0E0,0E0],"parents":[2147483647,0,0,1,1,2,2,3,3,4,4,5,5,6,6],"right_children":[2,4,6,8,10,12,14,-1,-1,-1,-1,-1,-1,-1,-1],"split_conditions":[1.28E-1,-2.4E-2,2.97E-1,-1.6E-1,5.3E-2,2.01E-1,4.67E-1,-3.271924E-3,-1.7873988E-3,-9.4897527E-4,-2.515632E-4,4.2552693E-4,1.1798756E-3,2.2633534E-3,4.4024987E-3],"split_indices":[2,2,2,2,2,2,2,0,0,0,0,0,0,0,0],"split_type":[0,0,0,0,0,0,0,0,0,0,0,0,0,0,0],"sum_hessian":[3.304084E6,1.824445E6,1.479639E6,5.11294E5,1.313151E6,1.130796E6,3.48843E5,8.9518E4,4.21776E5,5.92086E5,7.21065E5,6.26634E5,5.04162E5,2.83785E5,6.5058E4],"tree_param":{"num_deleted":"0","num_feature":"20","num_nodes":"15","size_leaf_vector":"1"}},{"base_weights":[-2.0857937E-5,-9.005881E-2,1.2923579E-1,-1.8456443E-1,-4.1874014E-2,9.071724E-2,2.92894E-1,-2.8109865E-3,-1.5160053E-3,-7.452335E-4,-9.459909E-5,5.921568E-4,1.4186446E-3,2.5714298E-3,4.943841E-3],"categories":[],"categories_nodes":[],"categories_segments":[],"categories_sizes":[],"default_left":[0,0,0,0,0,0,0,0,0,0,0,0,0,0,0],"id":7,"left_children":[1,3,5,7,9,11,13,-1,-1,-1,-1,-1,-1,-1,-1],"loss_changes":[3.8455027E4,8.868841E3,8.552213E3,2.092791E3,1.3651204E3,1.7694229E3,1.8617559E3,0E0,0E0,0E0,0E0,0E0,0E0,0E0,0E0],"parents":[2147483647,0,0,1,1,2,2,3,3,4,4,5,5,6,6],"right_children":[2,4,6,8,10,12,14,-1,-1,-1,-1,-1,-1,-1,-1],"split_conditions":[1.41E-1,-2E-3,3.27E-1,-1.13E-1,7.4E-2,2.27E-1,5.23E-1,-2.8109865E-3,-1.5160053E-3,-7.452335E-4,-9.459909E-5,5.921568E-4,1.4186446E-3,2.5714298E-3,4.943841E-3],"split_indices":[2,2,2,2,2,2,2,0,0,0,0,0,0,0,0],"split_type":[0,0,0,0,0,0,0,0,0,0,0,0,0,0,0],"sum_hessian":[3.304261E6,1.947598E6,1.356663E6,6.57679E5,1.289919E6,1.098194E6,2.58469E5,1.67411E5,4.90268E5,6.42627E5,6.47292E5,6.79619E5,4.18575E5,2.19521E5,3.8948E4],"tree_param":{"num_deleted":"0","num_feature":"20","num_nodes":"15","size_leaf_vector":"1"}},{"base_weights":[-2.057029E-5,-9.680942E-2,1.17908895E-1,-2.0257895E-1,-5.663322E-2,7.412877E-2,2.6101023E-1,-3.212017E-3,-1.7660732E-3,-9.5310406E-4,-2.638138E-4,4.0332618E-4,1.1459514E-3,2.2186465E-3,4.31819E-3],"categories":[],"categories_nodes":[],"categories_segments":[],"categories_sizes":[],"default_left":[0,0,0,0,0,0,0,0,0,0,0,0,0,0,0],"id":8,"left_children":[1,3,5,7,9,11,13,-1,-1,-1,-1,-1,-1,-1,-1],"loss_changes":[3.770779E4,7.7101953E3,9.329521E3,1.5387402E3,1.5385522E3,1.5594736E3,2.3325156E3,0E0,0E0,0E0,0E0,0E0,0E0,0E0,0E0],"parents":[2147483647,0,0,1,1,2,2,3,3,4,4,5,5,6,6],"right_children":[2,4,6,8,10,12,14,-1,-1,-1,-1,-1,-1,-1,-1],"split_conditions":[1.27E-1,-2.6E-2,2.97E-1,-1.6E-1,5E-2,1.99E-1,4.67E-1,-3.212017E-3,-1.7660732E-3,-9.5310406E-4,-2.638138E-4,4.0332618E-4,1.1459514E-3,2.2186465E-3,4.31819E-3],"split_indices":[2,2,2,2,2,2,2,0,0,0,0,0,0,0,0],"split_type":[0,0,0,0,0,0,0,0,0,0,0,0,0,0,0],"sum_hessian":[3.303567E6,1.814414E6,1.489153E6,4.99474E5,1.31494E6,1.140295E6,3.48858E5,8.9712E4,4.09762E5,5.77105E5,7.37835E5,6.21359E5,5.18936E5,2.83816E5,6.5042E4],"tree_param":{"num_deleted":"0","num_feature":"20","num_nodes":"15","size_leaf_vector":"1"}},{"base_weights":[1.5907719E-5,-8.780471E-2,1.2746438E-1,-1.8022242E-1,-4.0230114E-2,9.065151E-2,2.9228097E-1,-2.7575134E-3,-1.4806206E-3,-7.126484E-4,-7.399563E-5,5.9640716E-4,1.4245624E-3,2.6352298E-3,5.359426E-3],"categories":[],"categories_nodes":[],"categories_segments":[],"categories_sizes":[],"default_left":[0,0,0,0,0,0,0,0,0,0,0,0,0,0,0],"id":9,"left_children":[1,3,5,7,9,11,13,-1,-1,-1,-1,-1,-1,-1,-1],"loss_changes":[3.6979125E4,8.600198E3,8.1778535E3,2.0421914E3,1.3156968E3,1.7699785E3,1.7242305E3,0E0,0E0,0E0,0E0,0E0,0E0,0E0,0E0],"parents":[2147483647,0,0,1,1,2,2,3,3,4,4,5,5,6,6],"right_children":[2,4,6,8,10,12,14,-1,-1,-1,-1,-1,-1,-1,-1],"split_conditions":[1.42E-1,-1E-3,3.32E-1,-1.13E-1,7.7E-2,2.3E-1,5.69E-1,-2.7575134E-3,-1.4806206E-3,-7.126484E-4,-7.399563E-5,5.9640716E-4,1.4245624E-3,2.6352298E-3,5.359426E-3],"split_indices":[2,2,2,2,2,2,2,0,0,0,0,0,0,0,0],"split_type":[0,0,0,0,0,0,0,0,0,0,0,0,0,0,0],"sum_hessian":[3.303887E6,1.956042E6,1.347845E6,6.64735E5,1.291307E6,1.101761E6,2.46084E5,1.67421E5,4.97314E5,6.63808E5,6.27499E5,6.89201E5,4.1256E5,2.20108E5,2.5976E4],"tree_param":{"num_deleted":"0","num_feature":"20","num_nodes":"15","size_leaf_vector":"1"}},{"base_weights":[1.7817743E-5,-9.540848E-2,1.14954256E-1,-2.0030388E-1,-5.661707E-2,7.0995145E-2,2.5255635E-1,-3.1512126E-3,-1.744741E-3,-9.462409E-4,-2.6697962E-4,3.8162956E-4,1.0991336E-3,2.149519E-3,4.2429315E-3],"categories":[],"categories_nodes":[],"categories_segments":[],"categories_sizes":[],"default_left":[0,0,0,0,0,0,0,0,0,0,0,0,0,0,0],"id":10,"left_children":[1,3,5,7,9,11,13,-1,-1,-1,-1,-1,-1,-1,-1],"loss_changes":[3.6246383E4,7.3471523E3,9.067992E3,1.4456309E3,1.4989233E3,1.4517505E3,2.343957E3,0E0,0E0,0E0,0E0,0E0,0E0,0E0,0E0],"parents":[2147483647,0,0,1,1,2,2,3,3,4,4,5,5,6,6],"right_children":[2,4,6,8,10,12,14,-1,-1,-1,-1,-1,-1,-1,-1],"split_conditions":[1.26E-1,-2.8E-2,2.93E-1,-1.6E-1,4.9E-2,1.97E-1,4.67E-1,-3.1512126E-3,-1.744741E-3,-9.462409E-4,-2.6697962E-4,3.8162956E-4,1.0991336E-3,2.149519E-3,4.2429315E-3],"split_indices":[2,2,2,2,2,2,2,0,0,0,0,0,0,0,0],"split_type":[0,0,0,0,0,0,0,0,0,0,0,0,0,0,0],"sum_hessian":[3.30475E6,1.805625E6,1.499125E6,4.87467E5,1.318158E6,1.136162E6,3.62963E5,8.9521E4,3.97946E5,5.80602E5,7.37556E5,6.16268E5,5.19894E5,2.97765E5,6.5198E4],"tree_param":{"num_deleted":"0","num_feature":"20","num_nodes":"15","size_leaf_vector":"1"}},{"base_weights":[1.6690661E-5,-8.55648E-2,1.25663E-1,-1.7673579E-1,-3.8974673E-2,8.9455254E-2,2.8655875E-1,-2.7555423E-3,-1.4671584E-3,-6.98634E-4,-6.8400215E-5,5.967002E-4,1.4087871E-3,2.583856E-3,5.265093E-3],"categories":[],"categories_nodes":[],"categories_segments":[],"categories_sizes":[],"default_left":[0,0,0,0,0,0,0,0,0,0,0,0,0,0,0],"id":11,"left_children":[1,3,5,7,9,11,13,-1,-1,-1,-1,-1,-1,-1,-1],"loss_changes":[3.5526543E4,8.347804E3,7.79824E3,1.9716426E3,1.290999E3,1.6736445E3,1.6621855E3,0E0,0E0,0E0,0E0,0E0,0E0,0E0,0E0],"parents":[2147483647,0,0,1,1,2,2,3,3,4,4,5,5,6,6],"right_children":[2,4,6,8,10,12,14,-1,-1,-1,-1,-1,-1,-1,-1],"split_conditions":[1.43E-1,-1E-3,3.32E-1,-1.19E-1,7.7E-2,2.32E-1,5.69E-1,-2.7555423E-3,-1.4671584E-3,-6.98634E-4,-6.8400215E-5,5.967002E-4,1.4087871E-3,2.583856E-3,5.265093E-3],"split_indices":[2,2,2,2,2,2,2,0,0,0,0,0,0,0,0],"split_type":[0,0,0,0,0,0,0,0,0,0,0,0,0,0,0],"sum_hessian":[3.303871E6,1.965268E6,1.338603E6,6.64643E5,1.300625E6,1.092704E6,2.45899E5,1.54863E5,5.0978E5,6.63168E5,6.37457E5,6.9193E5,4.00774E5,2.20063E5,2.5836E4],"tree_param":{"num_deleted":"0","num_feature":"20","num_nodes":"15","size_leaf_vector":"1"}},{"base_weights":[-2.4259427E-6,-9.465396E-2,1.113295E-1,-1.9986355E-1,-5.7659894E-2,6.7470044E-2,2.4403635E-1,-3.1980493E-3,-1.75896E-3,-9.554251E-4,-2.826713E-4,3.518945E-4,1.0482696E-3,2.039842E-3,3.9855684E-3],"categories":[],"categories_nodes":[],"categories_segments":[],"categories_sizes":[],"default_left":[0,0,0,0,0,0,0,0,0,0,0,0,0,0,0],"id":12,"left_children":[1,3,5,7,9,11,13,-1,-1,-1,-1,-1,-1,-1,-1],"loss_changes":[3.4824406E4,6.9520107E3,8.838682E3,1.3357324E3,1.47146E3,1.3763511E3,2.3344434E3,0E0,0E0,0E0,0E0,0E0,0E0,0E0,0E0],"parents":[2147483647,0,0,1,1,2,2,3,3,4,4,5,5,6,6],"right_children":[2,4,6,8,10,12,14,-1,-1,-1,-1,-1,-1,-1,-1],"split_conditions":[1.24E-1,-3.2E-2,2.89E-1,-1.71E-1,4.6E-2,1.94E-1,4.47E-1,-3.1980493E-3,-1.75896E-3,-9.554251E-4,-2.826713E-4,3.518945E-4,1.0482696E-3,2.039842E-3,3.9855684E-3],"split_indices":[2,2,2,2,2,2,2,0,0,0,0,0,0,0,0],"split_type":[0,0,0,0,0,0,0,0,0,0,0,0,0,0,0],"sum_hessian":[3.304731E6,1.786173E6,1.518558E6,4.64669E5,1.321504E6,1.141346E6,3.77212E5,7.7387E4,3.87282E5,5.77367E5,7.44137E5,6.12274E5,5.29072E5,2.99566E5,7.7646E4],"tree_param":{"num_deleted":"0","num_feature":"20","num_nodes":"15","size_leaf_vector":"1"}},{"base_weights":[6.676506E-6,-8.2930714E-2,1.2465292E-1,-1.732858E-1,-3.7410673E-2,8.990282E-2,2.8605837E-1,-2.6149442E-3,-1.4077362E-3,-6.763895E-4,-4.970617E-5,6.0897414E-4,1.419202E-3,2.5728655E-3,5.1723365E-3],"categories":[],"categories_nodes":[],"categories_segments":[],"categories_sizes":[],"default_left":[0,0,0,0,0,0,0,0,0,0,0,0,0,0,0],"id":13,"left_children":[1,3,5,7,9,11,13,-1,-1,-1,-1,-1,-1,-1,-1],"loss_changes":[3.4146734E4,8.1575654E3,7.4020117E3,1.9055332E3,1.2933429E3,1.6384004E3,1.5549023E3,0E0,0E0,0E0,0E0,0E0,0E0,0E0,0E0],"parents":[2147483647,0,0,1,1,2,2,3,3,4,4,5,5,6,6],"right_children":[2,4,6,8,10,12,14,-1,-1,-1,-1,-1,-1,-1,-1],"split_conditions":[1.45E-1,-1E-3,3.37E-1,-1.08E-1,7.9E-2,2.36E-1,5.69E-1,-2.6149442E-3,-1.4077362E-3,-6.763895E-4,-4.970617E-5,6.0897414E-4,1.419202E-3,2.5728655E-3,5.1723365E-3],"split_indices":[2,2,2,2,2,2,2,0,0,0,0,0,0,0,0],"split_type":[0,0,0,0,0,0,0,0,0,0,0,0,0,0,0],"sum_hessian":[3.303082E6,1.983378E6,1.319704E6,6.64458E5,1.31892E6,1.085912E6,2.33792E5,1.78948E5,4.8551E5,6.82734E5,6.36186E5,6.97167E5,3.88745E5,2.07917E5,2.5875E4],"tree_param":{"num_deleted":"0","num_feature":"20","num_nodes":"15","size_leaf_vector":"1"}},{"base_weights":[6.077437E-5,-9.3328625E-2,1.0853673E-1,-1.9858302E-1,-5.781875E-2,6.56489E-2,2.3927371E-1,-3.1410125E-3,-1.744624E-3,-9.5619593E-4,-2.8886466E-4,3.3149382E-4,1.0182918E-3,1.999096E-3,3.912426E-3],"categories":[],"categories_nodes":[],"categories_segments":[],"categories_sizes":[],"default_left":[0,0,0,0,0,0,0,0,0,0,0,0,0,0,0],"id":14,"left_children":[1,3,5,7,9,11,13,-1,-1,-1,-1,-1,-1,-1,-1],"loss_changes":[3.3469574E4,6.635589E3,8.570115E3,1.2478633E3,1.451853E3,1.3532871E3,2.2584785E3,0E0,0E0,0E0,0E0,0E0,0E0,0E0,0E0],"parents":[2147483647,0,0,1,1,2,2,3,3,4,4,5,5,6,6],"right_children":[2,4,6,8,10,12,14,-1,-1,-1,-1,-1,-1,-1,-1],"split_conditions":[1.23E-1,-3.5E-2,2.89E-1,-1.71E-1,4.4E-2,1.92E-1,4.47E-1,-3.1410125E-3,-1.744624E-3,-9.5619593E-4,-2.8886466E-4,3.3149382E-4,1.0182918E-3,1.999096E-3,3.912426E-3],"split_indices":[2,2,2,2,2,2,2,0,0,0,0,0,0,0,0],"split_type":[0,0,0,0,0,0,0,0,0,0,0,0,0,0,0],"sum_hessian":[3.303839E6,1.775377E6,1.528462E6,4.47864E5,1.327513E6,1.150911E6,3.77551E5,7.736E4,3.70504E5,5.75545E5,7.51968E5,6.06297E5,5.44614E5,2.99877E5,7.7674E4],"tree_param":{"num_deleted":"0","num_feature":"20","num_nodes":"15","size_leaf_vector":"1"}},{"base_weights":[2.5094245E-5,-8.081634E-2,1.2289362E-1,-1.6499428E-1,-3.3655766E-2,8.991115E-2,2.865218E-1,-2.5200548E-3,-1.3283956E-3,-6.17572E-4,-2.6068585E-5,6.08443E-4,1.419801E-3,2.5690957E-3,5.0827716E-3],"categories":[],"categories_nodes":[],"categories_segments":[],"categories_sizes":[],"default_left":[0,0,0,0,0,0,0,0,0,0,0,0,0,0,0],"id":15,"left_children":[1,3,5,7,9,11,13,-1,-1,-1,-1,-1,-1,-1,-1],"loss_changes":[3.2813324E4,7.910085E3,7.075176E3,2.0017207E3,1.1142571E3,1.651291E3,1.4440391E3,0E0,0E0,0E0,0E0,0E0,0E0,0E0,0E0],"parents":[2147483647,0,0,1,1,2,2,3,3,4,4,5,5,6,6],"right_children":[2,4,6,8,10,12,14,-1,-1,-1,-1,-1,-1,-1,-1],"split_conditions":[1.46E-1,6E-3,3.43E-1,-1.02E-1,8.3E-2,2.38E-1,5.69E-1,-2.5200548E-3,-1.3283956E-3,-6.17572E-4,-2.6068585E-5,6.08443E-4,1.419801E-3,2.5690957E-3,5.0827716E-3],"split_indices":[2,2,2,2,2,2,2,0,0,0,0,0,0,0,0],"split_type":[0,0,0,0,0,0,0,0,0,0,0,0,0,0,0],"sum_hessian":[3.303508E6,1.992525E6,1.310983E6,7.15468E5,1.277057E6,1.09106E6,2.19923E5,1.93054E5,5.22414E5,6.70346E5,6.06711E5,7.0019E5,3.9087E5,1.94017E5,2.5906E4],"tree_param":{"num_deleted":"0","num_feature":"20","num_nodes":"15","size_leaf_vector":"1"}},{"base_weights":[8.533697E-6,-9.204369E-2,1.05770245E-1,-1.9642334E-1,-5.7736754E-2,6.305265E-2,2.3231046E-1,-3.224417E-3,-1.7493737E-3,-9.5332897E-4,-2.9526858E-4,3.1619048E-4,9.835915E-4,1.9436458E-3,3.841546E-3],"categories":[],"categories_nodes":[],"categories_segments":[],"categories_sizes":[],"default_left":[0,0,0,0,0,0,0,0,0,0,0,0,0,0,0],"id":16,"left_children":[1,3,5,7,9,11,13,-1,-1,-1,-1,-1,-1,-1,-1],"loss_changes":[3.215567E4,6.323585E3,8.308199E3,1.1827188E3,1.4095879E3,1.2752646E3,2.235002E3,0E0,0E0,0E0,0E0,0E0,0E0,0E0,0E0],"parents":[2147483647,0,0,1,1,2,2,3,3,4,4,5,5,6,6],"right_children":[2,4,6,8,10,12,14,-1,-1,-1,-1,-1,-1,-1,-1],"split_conditions":[1.22E-1,-3.7E-2,2.86E-1,-1.85E-1,4.2E-2,1.91E-1,4.47E-1,-3.224417E-3,-1.7493737E-3,-9.5332897E-4,-2.9526858E-4,3.1619048E-4,9.835915E-4,1.9436458E-3,3.841546E-3],"split_indices":[2,2,2,2,2,2,2,0,0,0,0,0,0,0,0],"split_type":[0,0,0,0,0,0,0,0,0,0,0,0,0,0,0],"sum_hessian":[3.302893E6,1.7659E6,1.536993E6,4.3683E5,1.32907E6,1.149085E6,3.87908E5,6.3628E4,3.73202E5,5.69748E5,7.59322E5,6.07884E5,5.41201E5,3.10353E5,7.7555E4],"tree_param":{"num_deleted":"0","num_feature":"20","num_nodes":"15","size_leaf_vector":"1"}},{"base_weights":[2.9725163E-5,-8.083625E-2,1.1744103E-1,-1.6767459E-1,-3.8309813E-2,8.340492E-2,2.6994088E-1,-2.6984068E-3,-1.422617E-3,-6.841361E-4,-8.214938E-5,5.4731185E-4,1.3128599E-3,2.359777E-3,4.5111817E-3],"categories":[],"categories_nodes":[],"categories_segments":[],"categories_sizes":[],"default_left":[0,0,0,0,0,0,0,0,0,0,0,0,0,0,0],"id":17,"left_children":[1,3,5,7,9,11,13,-1,-1,-1,-1,-1,-1,-1,-1],"loss_changes":[3.13656E4,7.224121E3,6.993242E3,1.669584E3,1.1896643E3,1.5122529E3,1.5126172E3,0E0,0E0,0E0,0E0,0E0,0E0,0E0,0E0],"parents":[2147483647,0,0,1,1,2,2,3,3,4,4,5,5,6,6],"right_children":[2,4,6,8,10,12,14,-1,-1,-1,-1,-1,-1,-1,-1],"split_conditions":[1.42E-1,-4E-3,3.32E-1,-1.33E-1,7.4E-2,2.3E-1,5.23E-1,-2.6984068E-3,-1.422617E-3,-6.841361E-4,-8.214938E-5,5.4731185E-4,1.3128599E-3,2.359777E-3,4.5111817E-3],"split_indices":[3,3,3,3,3,3,3,0,0,0,0,0,0,0,0],"split_type":[0,0,0,0,0,0,0,0,0,0,0,0,0,0,0],"sum_hessian":[3.303525E6,1.956206E6,1.347319E6,6.43068E5,1.313138E6,1.101483E6,2.45836E5,1.28093E5,5.14975E5,6.56471E5,6.56667E5,6.88922E5,4.12561E5,2.07029E5,3.8807E4],"tree_param":{"num_deleted":"0","num_feature":"20","num_nodes":"15","size_leaf_vector":"1"}},{"base_weights":[2.8652206E-5,-7.754058E-2,1.2073564E-1,-1.6019855E-1,-3.188302E-2,8.839496E-2,2.782449E-1,-2.4496876E-3,-1.2890525E-3,-5.9951656E-4,-1.8160357E-5,6.101914E-4,1.3950099E-3,2.4937189E-3,4.948093E-3],"categories":[],"categories_nodes":[],"categories_segments":[],"categories_sizes":[],"default_left":[0,0,0,0,0,0,0,0,0,0,0,0,0,0,0],"id":18,"left_children":[1,3,5,7,9,11,13,-1,-1,-1,-1,-1,-1,-1,-1],"loss_changes":[3.0930016E4,7.5895703E3,6.5831055E3,1.8981953E3,1.0932947E3,1.5000654E3,1.3764355E3,0E0,0E0,0E0,0E0,0E0,0E0,0E0,0E0],"parents":[2147483647,0,0,1,1,2,2,3,3,4,4,5,5,6,6],"right_children":[2,4,6,8,10,12,14,-1,-1,-1,-1,-1,-1,-1,-1],"split_conditions":[1.48E-1,6E-3,3.43E-1,-1.02E-1,8.3E-2,2.41E-1,5.69E-1,-2.4496876E-3,-1.2890525E-3,-5.9951656E-4,-1.8160357E-5,6.101914E-4,1.3950099E-3,2.4937189E-3,4.948093E-3],"split_indices":[2,2,2,2,2,2,2,0,0,0,0,0,0,0,0],"split_type":[0,0,0,0,0,0,0,0,0,0,0,0,0,0,0],"sum_hessian":[3.303376E6,2.011036E6,1.29234E6,7.15571E5,1.295465E6,1.072193E6,2.20147E5,1.92932E5,5.22639E5,6.69997E5,6.25468E5,6.98195E5,3.73998E5,1.94251E5,2.5896E4],"tree_param":{"num_deleted":"0","num_feature":"20","num_nodes":"15","size_leaf_vector":"1"}},{"base_weights":[9.426418E-6,-9.039444E-2,1.0147245E-1,-1.9331364E-1,-5.769063E-2,5.9205133E-2,2.2244121E-1,-3.141655E-3,-1.7185686E-3,-9.479859E-4,-3.061448E-4,2.8164036E-4,9.23776E-4,1.8642988E-3,3.7345781E-3],"categories":[],"categories_nodes":[],"categories_segments":[],"categories_sizes":[],"default_left":[0,0,0,0,0,0,0,0,0,0,0,0,0,0,0],"id":19,"left_children":[1,3,5,7,9,11,13,-1,-1,-1,-1,-1,-1,-1,-1],"loss_changes":[3.03098E4,5.8815244E3,7.9607188E3,1.0925898E3,1.332332E3,1.1880828E3,2.1923672E3,0E0,0E0,0E0,0E0,0E0,0E0,0E0,0E0],"parents":[2147483647,0,0,1,1,2,2,3,3,4,4,5,5,6,6],"right_children":[2,4,6,8,10,12,14,-1,-1,-1,-1,-1,-1,-1,-1],"split_conditions":[1.2E-1,-4E-2,2.82E-1,-1.85E-1,3.9E-2,1.87E-1,4.47E-1,-3.141655E-3,-1.7185686E-3,-9.479859E-4,-3.061448E-4,2.8164036E-4,9.23776E-4,1.8642988E-3,3.7345781E-3],"split_indices":[2,2,2,2,2,2,2,0,0,0,0,0,0,0,0],"split_type":[0,0,0,0,0,0,0,0,0,0,0,0,0,0,0],"sum_hessian":[3.304365E6,1.747414E6,1.556951E6,4.21366E5,1.326048E6,1.153805E6,4.03146E5,6.353E4,3.57836E5,5.59394E5,7.66654E5,5.96052E5,5.57753E5,3.25524E5,7.7622E4],"tree_param":{"num_deleted":"0","num_feature":"20","num_nodes":"15","size_leaf_vector":"1"}},{"base_weights":[1.7606939E-5,-7.556426E-2,1.1907823E-1,-1.5573278E-1,-3.0146567E-2,8.837467E-2,2.7906093E-1,-2.3664068E-3,-1.2405177E-3,-5.677719E-4,-6.626042E-7,6.0938386E-4,1.3944167E-3,2.4927713E-3,4.8671616E-3],"categories":[],"categories_nodes":[],"categories_segments":[],"categories_sizes":[],"default_left":[0,0,0,0,0,0,0,0,0,0,0,0,0,0,0],"id":20,"left_children":[1,3,5,7,9,11,13,-1,-1,-1,-1,-1,-1,-1,-1],"loss_changes":[2.9736857E4,7.359843E3,6.3030312E3,1.8737246E3,1.0336316E3,1.5083652E3,1.2777314E3,0E0,0E0,0E0,0E0,0E0,0E0,0E0,0E0],"parents":[2147483647,0,0,1,1,2,2,3,3,4,4,5,5,6,6],"right_children":[2,4,6,8,10,12,14,-1,-1,-1,-1,-1,-1,-1,-1],"split_conditions":[1.49E-1,8E-3,3.49E-1,-9.7E-2,8.6E-2,2.43E-1,5.69E-1,-2.3664068E-3,-1.2405177E-3,-5.677719E-4,-6.626042E-7,6.0938386E-4,1.3944167E-3,2.4927713E-3,4.8671616E-3],"split_indices":[2,2,2,2,2,2,2,0,0,0,0,0,0,0,0],"split_type":[0,0,0,0,0,0,0,0,0,0,0,0,0,0,0],"sum_hessian":[3.304525E6,2.021341E6,1.283184E6,7.31008E5,1.290333E6,1.076572E6,2.06612E5,2.05694E5,5.25314E5,6.84411E5,6.05922E5,7.0032E5,3.76252E5,1.80697E5,2.5915E4],"tree_param":{"num_deleted":"0","num_feature":"20","num_nodes":"15","size_leaf_vector":"1"}},{"base_weights":[-2.2435745E-5,3.7243925E-2,-4.9924582E-2,2.9398812E-2,5.2901704E-2,-1.1326961E-1,-3.169356E-2,4.602787E-4,2.392862E-4,7.0982584E-4,4.6970943E-4,-1.253372E-3,-8.4527984E-4,2.8144123E-4,-4.2054578E-4],"categories":[],"categories_nodes":[],"categories_segments":[],"categories_sizes":[],"default_left":[0,0,0,0,0,0,0,0,0,0,0,0,0,0,0],"id":21,"left_children":[1,3,5,7,9,11,13,-1,-1,-1,-1,-1,-1,-1,-1],"loss_changes":[6.1440493E3,2.3232983E2,1.6311675E3,1.14618164E2,6.769629E1,1.0947461E2,6.799927E2,0E0,0E0,0E0,0E0,0E0,0E0,0E0,0E0],"parents":[2147483647,0,0,1,1,2,2,3,3,4,4,5,5,6,6],"right_children":[2,4,6,8,10,12,14,-1,-1,-1,-1,-1,-1,-1,-1],"split_conditions":[5.960655E1,1.2010691E0,7.1724215E0,1E0,1E0,2E-2,1.8358269E1,4.602787E-4,2.392862E-4,7.0982584E-4,4.6970943E-4,-1.253372E-3,-8.4527984E-4,2.8144123E-4,-4.2054578E-4],"split_indices":[12,16,9,8,8,1,9,0,0,0,0,0,0,0,0],"split_type":[0,0,0,0,0,0,0,0,0,0,0,0,0,0,0],"sum_hessian":[3.303834E6,1.891376E6,1.412458E6,1.260049E6,6.31327E5,3.15662E5,1.096796E6,3.11896E5,9.48153E5,1.55932E5,4.75395E5,2.22316E5,9.3346E4,1.61882E5,9.34914E5],"tree_param":{"num_deleted":"0","num_feature":"20","num_nodes":"15","size_leaf_vector":"1"}},{"base_weights":[2.4826566E-5,-8.09793E-2,1.0839603E-1,-1.7355736E-1,-4.435234E-2,7.2411664E-2,2.4298213E-1,-2.7643729E-3,-1.4935669E-3,-7.7503396E-4,-1.6230969E-4,4.4146978E-4,1.13171E-3,2.0878606E-3,4.0515587E-3],"categories":[],"categories_nodes":[],"categories_segments":[],"categories_sizes":[],"default_left":[0,0,0,0,0,0,0,0,0,0,0,0,0,0,0],"id":22,"left_children":[1,3,5,7,9,11,13,-1,-1,-1,-1,-1,-1,-1,-1],"loss_changes":[2.8994205E4,6.4089805E3,6.8420586E3,1.3339717E3,1.2625347E3,1.2842231E3,1.6527891E3,0E0,0E0,0E0,0E0,0E0,0E0,0E0,0E0],"parents":[2147483647,0,0,1,1,2,2,3,3,4,4,5,5,6,6],"right_children":[2,4,6,8,10,12,14,-1,-1,-1,-1,-1,-1,-1,-1],"split_conditions":[1.35E-1,-2E-2,3.13E-1,-1.5E-1,5.9E-2,2.15E-1,4.92E-1,-2.7643729E-3,-1.4935669E-3,-7.7503396E-4,-1.6230969E-4,4.4146978E-4,1.13171E-3,2.0878606E-3,4.0515587E-3],"split_indices":[2,2,2,2,2,2,2,0,0,0,0,0,0,0,0],"split_type":[0,0,0,0,0,0,0,0,0,0,0,0,0,0,0],"sum_hessian":[3.302858E6,1.890081E6,1.412777E6,5.35798E5,1.354283E6,1.114732E6,2.98045E5,1.02033E5,4.33765E5,6.21556E5,7.32727E5,6.58261E5,4.56471E5,2.46145E5,5.19E4],"tree_param":{"num_deleted":"0","num_feature":"20","num_nodes":"15","size_leaf_vector":"1"}},{"base_weights":[6.3984007E-6,-7.3094755E-2,1.1782743E-1,-1.51154E-1,-2.8075323E-2,8.747742E-2,2.7323267E-1,-2.318747E-3,-1.2038446E-3,-5.4354593E-4,9.7867005E-6,6.110447E-4,1.3754427E-3,2.53215E-3,5.709039E-3],"categories":[],"categories_nodes":[],"categories_segments":[],"categories_sizes":[],"default_left":[0,0,0,0,0,0,0,0,0,0,0,0,0,0,0],"id":23,"left_children":[1,3,5,7,9,11,13,-1,-1,-1,-1,-1,-1,-1,-1],"loss_changes":[2.8456945E4,7.165257E3,5.966666E3,1.8523555E3,9.873445E2,1.3974639E3,1.2314746E3,0E0,0E0,0E0,0E0,0E0,0E0,0E0,0E0],"parents":[2147483647,0,0,1,1,2,2,3,3,4,4,5,5,6,6],"right_children":[2,4,6,8,10,12,14,-1,-1,-1,-1,-1,-1,-1,-1],"split_conditions":[1.51E-1,1E-2,3.49E-1,-9.7E-2,8.7E-2,2.45E-1,6.44E-1,-2.318747E-3,-1.2038446E-3,-5.4354593E-4,9.7867005E-6,6.110447E-4,1.3754427E-3,2.53215E-3,5.709039E-3],"split_indices":[2,2,2,2,2,2,2,0,0,0,0,0,0,0,0],"split_type":[0,0,0,0,0,0,0,0,0,0,0,0,0,0,0],"sum_hessian":[3.304007E6,2.038954E6,1.265053E6,7.45803E5,1.293151E6,1.058361E6,2.06692E5,2.05828E5,5.39975E5,6.78998E5,6.14153E5,6.93211E5,3.6515E5,1.9367E5,1.3022E4],"tree_param":{"num_deleted":"0","num_feature":"20","num_nodes":"15","size_leaf_vector":"1"}},{"base_weights":[-2.0238913E-5,-8.728412E-2,9.678279E-2,-1.8732594E-1,-5.6243245E-2,5.7291314E-2,2.1666844E-1,-3.1891176E-3,-1.6850639E-3,-9.1365067E-4,-2.9784546E-4,2.7259951E-4,9.0807397E-4,1.7722206E-3,3.4614897E-3],"categories":[],"categories_nodes":[],"categories_segments":[],"categories_sizes":[],"default_left":[0,0,0,0,0,0,0,0,0,0,0,0,0,0,0],"id":24,"left_children":[1,3,5,7,9,11,13,-1,-1,-1,-1,-1,-1,-1,-1],"loss_changes":[2.7903926E4,5.3947295E3,7.4143086E3,1.0186826E3,1.2320728E3,1.1856863E3,1.981873E3,0E0,0E0,0E0,0E0,0E0,0E0,0E0,0E0],"parents":[2147483647,0,0,1,1,2,2,3,3,4,4,5,5,6,6],"right_children":[2,4,6,8,10,12,14,-1,-1,-1,-1,-1,-1,-1,-1],"split_conditions":[1.19E-1,-4.2E-2,2.86E-1,-2E-1,3.9E-2,1.89E-1,4.31E-1,-3.1891176E-3,-1.6850639E-3,-9.1365067E-4,-2.9784546E-4,2.7259951E-4,9.0807397E-4,1.7722206E-3,3.4614897E-3],"split_indices":[2,2,2,2,2,2,2,0,0,0,0,0,0,0,0],"split_type":[0,0,0,0,0,0,0,0,0,0,0,0,0,0,0],"sum_hessian":[3.303251E6,1.73722E6,1.566031E6,4.11379E5,1.325841E6,1.177991E6,3.8804E5,5.1472E4,3.59907E5,5.6966E5,7.56181E5,6.21295E5,5.56696E5,2.9743E5,9.061E4],"tree_param":{"num_deleted":"0","num_feature":"20","num_nodes":"15","size_leaf_vector":"1"}},{"base_weights":[-1.7767787E-5,-7.270579E-2,1.13225386E-1,-1.5429229E-1,-3.2461304E-2,8.3730124E-2,2.6635912E-1,-2.4150615E-3,-1.2781313E-3,-6.1006646E-4,-3.9198123E-5,5.6733115E-4,1.3155275E-3,2.3776225E-3,4.6770317E-3],"categories":[],"categories_nodes":[],"categories_segments":[],"categories_sizes":[],"default_left":[0,0,0,0,0,0,0,0,0,0,0,0,0,0,0],"id":25,"left_children":[1,3,5,7,9,11,13,-1,-1,-1,-1,-1,-1,-1,-1],"loss_changes":[2.719471E4,6.606838E3,5.833668E3,1.5349658E3,1.097848E3,1.3981982E3,1.2009336E3,0E0,0E0,0E0,0E0,0E0,0E0,0E0,0E0],"parents":[2147483647,0,0,1,1,2,2,3,3,4,4,5,5,6,6],"right_children":[2,4,6,8,10,12,14,-1,-1,-1,-1,-1,-1,-1,-1],"split_conditions":[1.48E-1,-1E-3,3.48E-1,-1.19E-1,7.8E-2,2.4E-1,5.68E-1,-2.4150615E-3,-1.2781313E-3,-6.1006646E-4,-3.9198123E-5,5.6733115E-4,1.3155275E-3,2.3776225E-3,4.6770317E-3],"split_indices":[3,3,3,3,3,3,3,0,0,0,0,0,0,0,0],"split_type":[0,0,0,0,0,0,0,0,0,0,0,0,0,0,0],"sum_hessian":[3.303767E6,2.012191E6,1.291576E6,6.64687E5,1.347504E6,1.082983E6,2.08593E5,1.54804E5,5.09883E5,6.73706E5,6.73798E5,6.92214E5,3.90769E5,1.82653E5,2.594E4],"tree_param":{"num_deleted":"0","num_feature":"20","num_nodes":"15","size_leaf_vector":"1"}},{"base_weights":[1.7519651E-5,-8.555381E-2,9.489899E-2,-1.8621367E-1,-5.5841867E-2,5.516033E-2,2.0953488E-1,-3.1341573E-3,-1.6724064E-3,-9.125532E-4,-2.985094E-4,2.549374E-4,8.6511596E-4,1.7177595E-3,3.3961795E-3],"categories":[],"categories_nodes":[],"categories_segments":[],"categories_sizes":[],"default_left":[0,0,0,0,0,0,0,0,0,0,0,0,0,0,0],"id":26,"left_children":[1,3,5,7,9,11,13,-1,-1,-1,-1,-1,-1,-1,-1],"loss_changes":[2.682531E4,5.1956455E3,7.137282E3,9.5544824E2,1.2345684E3,1.0820989E3,1.9809082E3,0E0,0E0,0E0,0E0,0E0,0E0,0E0,0E0],"parents":[2147483647,0,0,1,1,2,2,3,3,4,4,5,5,6,6],"right_children":[2,4,6,8,10,12,14,-1,-1,-1,-1,-1,-1,-1,-1],"split_conditions":[1.19E-1,-4.5E-2,2.82E-1,-2E-1,3.7E-2,1.86E-1,4.31E-1,-3.1341573E-3,-1.6724064E-3,-9.125532E-4,-2.985094E-4,2.549374E-4,8.6511596E-4,1.7177595E-3,3.3961795E-3],"split_indices":[2,2,2,2,2,2,2,0,0,0,0,0,0,0,0],"split_type":[0,0,0,0,0,0,0,0,0,0,0,0,0,0,0],"sum_hessian":[3.30396E6,1.737211E6,1.566749E6,3.95912E5,1.341299E6,1.163442E6,4.03307E5,5.1386E4,3.44526E5,5.67737E5,7.73562E5,5.97783E5,5.65659E5,3.12578E5,9.0729E4],"tree_param":{"num_deleted":"0","num_feature":"20","num_nodes":"15","size_leaf_vector":"1"}},{"base_weights":[1.802805E-5,-6.943699E-2,1.14574865E-1,-1.4469637E-1,-2.5934968E-2,8.617112E-2,2.6869366E-1,-2.1998954E-3,-1.1388252E-3,-5.1115424E-4,2.474432E-5,6.050449E-4,1.3518822E-3,2.4815998E-3,5.5298363E-3],"categories":[],"categories_nodes":[],"categories_segments":[],"categories_sizes":[],"default_left":[0,0,0,0,0,0,0,0,0,0,0,0,0,0,0],"id":27,"left_children":[1,3,5,7,9,11,13,-1,-1,-1,-1,-1,-1,-1,-1],"loss_changes":[2.628208E4,6.7325605E3,5.4578594E3,1.7475908E3,9.322273E2,1.3244824E3,1.1324707E3,0E0,0E0,0E0,0E0,0E0,0E0,0E0,0E0],"parents":[2147483647,0,0,1,1,2,2,3,3,4,4,5,5,6,6],"right_children":[2,4,6,8,10,12,14,-1,-1,-1,-1,-1,-1,-1,-1],"split_conditions":[1.53E-1,1.1E-2,3.55E-1,-9.2E-2,8.9E-2,2.48E-1,6.44E-1,-2.1998954E-3,-1.1388252E-3,-5.1115424E-4,2.474432E-5,6.050449E-4,1.3518822E-3,2.4815998E-3,5.5298363E-3],"split_indices":[2,2,2,2,2,2,2,0,0,0,0,0,0,0,0],"split_type":[0,0,0,0,0,0,0,0,0,0,0,0,0,0,0],"sum_hessian":[3.3032E6,2.056412E6,1.246788E6,7.53258E5,1.303154E6,1.052767E6,1.94021E5,2.18747E5,5.34511E5,6.90836E5,6.12318E5,6.90963E5,3.61804E5,1.80953E5,1.3068E4],"tree_param":{"num_deleted":"0","num_feature":"20","num_nodes":"15","size_leaf_vector":"1"}},{"base_weights":[2.1193973E-5,-8.4349126E-2,9.250952E-2,-1.8260433E-1,-5.5150248E-2,5.6295116E-2,2.1362972E-1,-3.080411E-3,-1.6391593E-3,-8.9427864E-4,-2.9655796E-4,2.80218E-4,9.2038413E-4,1.8106049E-3,3.6265918E-3],"categories":[],"categories_nodes":[],"categories_segments":[],"categories_sizes":[],"default_left":[0,0,0,0,0,0,0,0,0,0,0,0,0,0,0],"id":28,"left_children":[1,3,5,7,9,11,13,-1,-1,-1,-1,-1,-1,-1,-1],"loss_changes":[2.5783143E4,4.957248E3,6.9138477E3,9.279092E2,1.1640657E3,1.2262695E3,1.7609316E3,0E0,0E0,0E0,0E0,0E0,0E0,0E0,0E0],"parents":[2147483647,0,0,1,1,2,2,3,3,4,4,5,5,6,6],"right_children":[2,4,6,8,10,12,14,-1,-1,-1,-1,-1,-1,-1,-1],"split_conditions":[1.18E-1,-4.5E-2,2.93E-1,-2E-1,3.7E-2,1.95E-1,4.67E-1,-3.080411E-3,-1.6391593E-3,-8.9427864E-4,-2.9655796E-4,2.80218E-4,9.2038413E-4,1.8106049E-3,3.6265918E-3],"split_indices":[2,2,2,2,2,2,2,0,0,0,0,0,0,0,0],"split_type":[0,0,0,0,0,0,0,0,0,0,0,0,0,0,0],"sum_hessian":[3.304144E6,1.727904E6,1.57624E6,3.9585E5,1.332054E6,1.213431E6,3.62809E5,5.1327E4,3.44523E5,5.68157E5,7.63897E5,6.77513E5,5.35918E5,2.97742E5,6.5067E4],"tree_param":{"num_deleted":"0","num_feature":"20","num_nodes":"15","size_leaf_vector":"1"}},{"base_weights":[-1.901601E-5,-6.813848E-2,1.1228717E-1,-1.4188455E-1,-2.5445458E-2,8.5434705E-2,2.690482E-1,-2.226003E-3,-1.1411003E-3,-5.013499E-4,2.4425226E-5,5.983226E-4,1.3488894E-3,2.479898E-3,5.439416E-3],"categories":[],"categories_nodes":[],"categories_segments":[],"categories_sizes":[],"default_left":[0,0,0,0,0,0,0,0,0,0,0,0,0,0,0],"id":29,"left_children":[1,3,5,7,9,11,13,-1,-1,-1,-1,-1,-1,-1,-1],"loss_changes":[2.5280682E4,6.476119E3,5.25179E3,1.6907354E3,8.9699457E2,1.3486636E3,1.0560869E3,0E0,0E0,0E0,0E0,0E0,0E0,0E0,0E0],"parents":[2147483647,0,0,1,1,2,2,3,3,4,4,5,5,6,6],"right_children":[2,4,6,8,10,12,14,-1,-1,-1,-1,-1,-1,-1,-1],"split_conditions":[1.53E-1,1.1E-2,3.61E-1,-1.02E-1,8.9E-2,2.5E-1,6.44E-1,-2.226003E-3,-1.1411003E-3,-5.013499E-4,2.4425226E-5,5.983226E-4,1.3488894E-3,2.479898E-3,5.439416E-3],"split_indices":[2,2,2,2,2,2,2,0,0,0,0,0,0,0,0],"split_type":[0,0,0,0,0,0,0,0,0,0,0,0,0,0,0],"sum_hessian":[3.30456E6,2.056928E6,1.247632E6,7.54183E5,1.302745E6,1.065174E6,1.82458E5,1.93076E5,5.61107E5,6.90997E5,6.11748E5,7.01836E5,3.63338E5,1.69477E5,1.2981E4],"tree_param":{"num_deleted":"0","num_feature":"20","num_nodes":"15","size_leaf_vector":"1"}},{"base_weights":[-1.1867569E-5,-7.704949E-2,9.722691E-2,-1.6634968E-1,-4.493798E-2,6.452966E-2,2.248828E-1,-2.7482938E-3,-1.4585421E-3,-7.556191E-4,-1.8068703E-4,3.619748E-4,1.0151045E-3,1.9773773E-3,4.0617962E-3],"categories":[],"categories_nodes":[],"categories_segments":[],"categories_sizes":[],"default_left":[0,0,0,0,0,0,0,0,0,0,0,0,0,0,0],"id":30,"left_children":[1,3,5,7,9,11,13,-1,-1,-1,-1,-1,-1,-1,-1],"loss_changes":[2.4746438E4,5.2854717E3,6.09517E3,1.083832E3,1.1155266E3,1.2180171E3,1.4652949E3,0E0,0E0,0E0,0E0,0E0,0E0,0E0,0E0],"parents":[2147483647,0,0,1,1,2,2,3,3,4,4,5,5,6,6],"right_children":[2,4,6,8,10,12,14,-1,-1,-1,-1,-1,-1,-1,-1],"split_conditions":[1.3E-1,-2.8E-2,3.13E-1,-1.71E-1,5.5E-2,2.08E-1,5.23E-1,-2.7482938E-3,-1.4585421E-3,-7.556191E-4,-1.8068703E-4,3.619748E-4,1.0151045E-3,1.9773773E-3,4.0617962E-3],"split_indices":[2,2,2,2,2,2,2,0,0,0,0,0,0,0,0],"split_type":[0,0,0,0,0,0,0,0,0,0,0,0,0,0,0],"sum_hessian":[3.303468E6,1.843194E6,1.460274E6,4.87495E5,1.355699E6,1.162514E6,2.9776E5,7.7466E4,4.10029E5,6.33581E5,7.22118E5,6.58227E5,5.04287E5,2.58985E5,3.8775E4],"tree_param":{"num_deleted":"0","num_feature":"20","num_nodes":"15","size_leaf_vector":"1"}},{"base_weights":[-1.8744407E-5,-6.601814E-2,1.11336954E-1,-1.379374E-1,-2.3623465E-2,8.474831E-2,2.638965E-1,-2.11764E-3,-1.0858867E-3,-4.7692272E-4,3.7560563E-5,5.958347E-4,1.3218208E-3,2.4314933E-3,5.34904E-3],"categories":[],"categories_nodes":[],"categories_segments":[],"categories_sizes":[],"default_left":[0,0,0,0,0,0,0,0,0,0,0,0,0,0,0],"id":31,"left_children":[1,3,5,7,9,11,13,-1,-1,-1,-1,-1,-1,-1,-1],"loss_changes":[2.4281041E4,6.324701E3,4.9870615E3,1.666833E3,8.600243E2,1.2497349E3,1.0258389E3,0E0,0E0,0E0,0E0,0E0,0E0,0E0,0E0],"parents":[2147483647,0,0,1,1,2,2,3,3,4,4,5,5,6,6],"right_children":[2,4,6,8,10,12,14,-1,-1,-1,-1,-1,-1,-1,-1],"split_conditions":[1.55E-1,1.3E-2,3.61E-1,-9.2E-2,9.1E-2,2.5E-1,6.44E-1,-2.11764E-3,-1.0858867E-3,-4.7692272E-4,3.7560563E-5,5.958347E-4,1.3218208E-3,2.4314933E-3,5.34904E-3],"split_indices":[2,2,2,2,2,2,2,0,0,0,0,0,0,0,0],"split_type":[0,0,0,0,0,0,0,0,0,0,0,0,0,0,0],"sum_hessian":[3.303807E6,2.074357E6,1.22945E6,7.69299E5,1.305058E6,1.04698E6,1.8247E5,2.18829E5,5.5047E5,6.94519E5,6.10539E5,6.84067E5,3.62913E5,1.69496E5,1.2974E4],"tree_param":{"num_deleted":"0","num_feature":"20","num_nodes":"15","size_leaf_vector":"1"}},{"base_weights":[5.689181E-6,-8.204385E-2,8.782846E-2,-1.773273E-1,-5.4251045E-2,5.0008364E-2,1.9545183E-1,-2.9756979E-3,-1.5882864E-3,-8.7254395E-4,-2.993534E-4,2.2150755E-4,7.9881627E-4,1.6027174E-3,3.2152848E-3],"categories":[],"categories_nodes":[],"categories_segments":[],"categories_sizes":[],"default_left":[0,0,0,0,0,0,0,0,0,0,0,0,0,0,0],"id":32,"left_children":[1,3,5,7,9,11,13,-1,-1,-1,-1,-1,-1,-1,-1],"loss_changes":[2.3805742E4,4.5230566E3,6.4950215E3,8.578574E2,1.0611345E3,9.8263135E2,1.8403447E3,0E0,0E0,0E0,0E0,0E0,0E0,0E0,0E0],"parents":[2147483647,0,0,1,1,2,2,3,3,4,4,5,5,6,6],"right_children":[2,4,6,8,10,12,14,-1,-1,-1,-1,-1,-1,-1,-1],"split_conditions":[1.16E-1,-4.7E-2,2.79E-1,-2E-1,3.5E-2,1.84E-1,4.31E-1,-2.9756979E-3,-1.5882864E-3,-8.7254395E-4,-2.993534E-4,2.2150755E-4,7.9881627E-4,1.6027174E-3,3.2152848E-3],"split_indices":[2,2,2,2,2,2,2,0,0,0,0,0,0,0,0],"split_type":[0,0,0,0,0,0,0,0,0,0,0,0,0,0,0],"sum_hessian":[3.303682E6,1.70798E6,1.595702E6,3.85691E5,1.322289E6,1.180768E6,4.14934E5,5.1423E4,3.34268E5,5.60936E5,7.61353E5,6.10998E5,5.6977E5,3.24413E5,9.0521E4],"tree_param":{"num_deleted":"0","num_feature":"20","num_nodes":"15","size_leaf_vector":"1"}},{"base_weights":[1.2217454E-5,-6.436149E-2,1.0979249E-1,-1.3523649E-1,-2.2846397E-2,8.35967E-2,2.5895998E-1,-2.18284E-3,-1.1005983E-3,-4.710939E-4,3.5897516E-5,5.9659465E-4,1.3110214E-3,2.384638E-3,5.255368E-3],"categories":[],"categories_nodes":[],"categories_segments":[],"categories_sizes":[],"default_left":[0,0,0,0,0,0,0,0,0,0,0,0,0,0,0],"id":33,"left_children":[1,3,5,7,9,11,13,-1,-1,-1,-1,-1,-1,-1,-1],"loss_changes":[2.3346633E4,6.1274697E3,4.771668E3,1.6083418E3,8.423457E2,1.1811831E3,9.965498E2,0E0,0E0,0E0,0E0,0E0,0E0,0E0,0E0],"parents":[2147483647,0,0,1,1,2,2,3,3,4,4,5,5,6,6],"right_children":[2,4,6,8,10,12,14,-1,-1,-1,-1,-1,-1,-1,-1],"split_conditions":[1.56E-1,1.3E-2,3.61E-1,-1.08E-1,9E-2,2.53E-1,6.44E-1,-2.18284E-3,-1.1005983E-3,-4.710939E-4,3.5897516E-5,5.9659465E-4,1.3110214E-3,2.384638E-3,5.255368E-3],"split_indices":[2,2,2,2,2,2,2,0,0,0,0,0,0,0,0],"split_type":[0,0,0,0,0,0,0,0,0,0,0,0,0,0,0],"sum_hessian":[3.303628E6,2.082486E6,1.221142E6,7.69236E5,1.31325E6,1.038729E6,1.82413E5,1.78949E5,5.90287E5,6.8477E5,6.2848E5,6.90699E5,3.4803E5,1.69391E5,1.3022E4],"tree_param":{"num_deleted":"0","num_feature":"20","num_nodes":"15","size_leaf_vector":"1"}},{"base_weights":[-2.8082777E-5,-8.089567E-2,8.561413E-2,-1.7627777E-1,-5.422266E-2,4.8629407E-2,1.9168466E-1,-3.1356742E-3,-1.6032658E-3,-8.6617E-4,-3.0059123E-4,2.1360717E-4,7.832778E-4,1.6022815E-3,3.2846737E-3],"categories":[],"categories_nodes":[],"categories_segments":[],"categories_sizes":[],"default_left":[0,0,0,0,0,0,0,0,0,0,0,0,0,0,0],"id":34,"left_children":[1,3,5,7,9,11,13,-1,-1,-1,-1,-1,-1,-1,-1],"loss_changes":[2.2878049E4,4.322577E3,6.2937256E3,8.130635E2,1.0393083E3,9.633386E2,1.7845889E3,0E0,0E0,0E0,0E0,0E0,0E0,0E0,0E0],"parents":[2147483647,0,0,1,1,2,2,3,3,4,4,5,5,6,6],"right_children":[2,4,6,8,10,12,14,-1,-1,-1,-1,-1,-1,-1,-1],"split_conditions":[1.15E-1,-5E-2,2.79E-1,-2.2E-1,3.4E-2,1.84E-1,4.47E-1,-3.1356742E-3,-1.6032658E-3,-8.6617E-4,-3.0059123E-4,2.1360717E-4,7.832778E-4,1.6022815E-3,3.2846737E-3],"split_indices":[2,2,2,2,2,2,2,0,0,0,0,0,0,0,0],"split_type":[0,0,0,0,0,0,0,0,0,0,0,0,0,0,0],"sum_hessian":[3.303363E6,1.699043E6,1.60432E6,3.71295E5,1.327748E6,1.189549E6,4.14771E5,3.8647E4,3.32648E5,5.6726E5,7.60488E5,6.20143E5,5.69406E5,3.37221E5,7.755E4],"tree_param":{"num_deleted":"0","num_feature":"20","num_nodes":"15","size_leaf_vector":"1"}},{"base_weights":[-1.9579693E-5,-6.490812E-2,1.0460316E-1,-1.4394566E-1,-2.9629676E-2,7.85076E-2,2.4879031E-1,-2.3891537E-3,-1.22591E-3,-5.8611494E-4,-4.0474722E-5,5.296857E-4,1.2139202E-3,2.294236E-3,5.18488E-3],"categories":[],"categories_nodes":[],"categories_segments":[],"categories_sizes":[],"default_left":[0,0,0,0,0,0,0,0,0,0,0,0,0,0,0],"id":35,"left_children":[1,3,5,7,9,11,13,-1,-1,-1,-1,-1,-1,-1,-1],"loss_changes":[2.2430414E4,5.686083E3,4.758869E3,1.2762646E3,1.0453486E3,1.1729272E3,1.0122529E3,0E0,0E0,0E0,0E0,0E0,0E0,0E0,0E0],"parents":[2147483647,0,0,1,1,2,2,3,3,4,4,5,5,6,6],"right_children":[2,4,6,8,10,12,14,-1,-1,-1,-1,-1,-1,-1,-1],"split_conditions":[1.51E-1,-6E-3,3.55E-1,-1.41E-1,7.3E-2,2.41E-1,6.44E-1,-2.3891537E-3,-1.22591E-3,-5.8611494E-4,-4.0474722E-5,5.296857E-4,1.2139202E-3,2.294236E-3,5.18488E-3],"split_indices":[2,2,2,2,2,2,2,0,0,0,0,0,0,0,0],"split_type":[0,0,0,0,0,0,0,0,0,0,0,0,0,0,0],"sum_hessian":[3.304022E6,2.03925E6,1.264772E6,6.29321E5,1.409929E6,1.070949E6,1.93823E5,1.15528E5,5.13793E5,6.61041E5,7.48888E5,6.71219E5,3.9973E5,1.80839E5,1.2984E4],"tree_param":{"num_deleted":"0","num_feature":"20","num_nodes":"15","size_leaf_vector":"1"}},{"base_weights":[2.2964501E-5,-7.5223E-2,8.851465E-2,-1.6192444E-1,-4.6207063E-2,5.5689666E-2,2.0277202E-1,-2.7312997E-3,-1.4349602E-3,-7.6050166E-4,-2.177572E-4,2.993E-4,8.9929183E-4,1.7460032E-3,3.5767658E-3],"categories":[],"categories_nodes":[],"categories_segments":[],"categories_sizes":[],"default_left":[0,0,0,0,0,0,0,0,0,0,0,0,0,0,0],"id":36,"left_children":[1,3,5,7,9,11,13,-1,-1,-1,-1,-1,-1,-1,-1],"loss_changes":[2.20063E4,4.493426E3,5.6961826E3,9.178008E2,9.7574E2,1.0406072E3,1.4791035E3,0E0,0E0,0E0,0E0,0E0,0E0,0E0,0E0],"parents":[2147483647,0,0,1,1,2,2,3,3,4,4,5,5,6,6],"right_children":[2,4,6,8,10,12,14,-1,-1,-1,-1,-1,-1,-1,-1],"split_conditions":[1.24E-1,-3.5E-2,3E-1,-1.85E-1,4.7E-2,2.02E-1,4.92E-1,-2.7312997E-3,-1.4349602E-3,-7.6050166E-4,-2.177572E-4,2.993E-4,8.9929183E-4,1.7460032E-3,3.5767658E-3],"split_indices":[2,2,2,2,2,2,2,0,0,0,0,0,0,0,0],"split_type":[0,0,0,0,0,0,0,0,0,0,0,0,0,0,0],"sum_hessian":[3.304921E6,1.786138E6,1.518783E6,4.4787E5,1.338268E6,1.179831E6,3.38952E5,6.3666E4,3.84204E5,6.02413E5,7.35855E5,6.73291E5,5.0654E5,2.86796E5,5.2156E4],"tree_param":{"num_deleted":"0","num_feature":"20","num_nodes":"15","size_leaf_vector":"1"}},{"base_weights":[3.4507724E-5,-6.1859492E-2,1.0556225E-1,-1.34545E-1,-2.4398305E-2,8.1481755E-2,2.5651303E-1,-2.2312833E-3,-1.1255442E-3,-4.973157E-4,1.651823E-5,5.72981E-4,1.2756314E-3,2.3535616E-3,5.0844E-3],"categories":[],"categories_nodes":[],"categories_segments":[],"categories_sizes":[],"default_left":[0,0,0,0,0,0,0,0,0,0,0,0,0,0,0],"id":37,"left_children":[1,3,5,7,9,11,13,-1,-1,-1,-1,-1,-1,-1,-1],"loss_changes":[2.1578156E4,5.6699995E3,4.439505E3,1.3795723E3,9.0684216E2,1.1738184E3,8.9547266E2,0E0,0E0,0E0,0E0,0E0,0E0,0E0,0E0],"parents":[2147483647,0,0,1,1,2,2,3,3,4,4,5,5,6,6],"right_children":[2,4,6,8,10,12,14,-1,-1,-1,-1,-1,-1,-1,-1],"split_conditions":[1.56E-1,5E-3,3.69E-1,-1.26E-1,8.5E-2,2.53E-1,6.44E-1,-2.2312833E-3,-1.1255442E-3,-4.973157E-4,1.651823E-5,5.72981E-4,1.2756314E-3,2.3535616E-3,5.0844E-3],"split_indices":[2,2,2,2,2,2,2,0,0,0,0,0,0,0,0],"split_type":[0,0,0,0,0,0,0,0,0,0,0,0,0,0,0],"sum_hessian":[3.303687E6,2.08235E6,1.221337E6,7.08212E5,1.374138E6,1.053309E6,1.68028E5,1.40845E5,5.67367E5,6.96654E5,6.77484E5,6.90785E5,3.62524E5,1.55012E5,1.3016E4],"tree_param":{"num_deleted":"0","num_feature":"20","num_nodes":"15","size_leaf_vector":"1"}},{"base_weights":[3.788539E-5,-7.82448E-2,8.182902E-2,-1.719264E-1,-5.3066704E-2,4.567309E-2,1.8236338E-1,-3.0297264E-3,-1.5605717E-3,-8.4603165E-4,-2.987293E-4,1.9462782E-4,7.371175E-4,1.4955562E-3,3.0419487E-3],"categories":[],"categories_nodes":[],"categories_segments":[],"categories_sizes":[],"default_left":[0,0,0,0,0,0,0,0,0,0,0,0,0,0,0],"id":38,"left_children":[1,3,5,7,9,11,13,-1,-1,-1,-1,-1,-1,-1,-1],"loss_changes":[2.1147895E4,3.9806797E3,5.871296E3,7.433965E2,9.729365E2,8.7306494E2,1.7076797E3,0E0,0E0,0E0,0E0,0E0,0E0,0E0,0E0],"parents":[2147483647,0,0,1,1,2,2,3,3,4,4,5,5,6,6],"right_children":[2,4,6,8,10,12,14,-1,-1,-1,-1,-1,-1,-1,-1],"split_conditions":[1.14E-1,-5.3E-2,2.76E-1,-2.2E-1,3.2E-2,1.82E-1,4.31E-1,-3.0297264E-3,-1.5605717E-3,-8.4603165E-4,-2.987293E-4,1.9462782E-4,7.371175E-4,1.4955562E-3,3.0419487E-3],"split_indices":[2,2,2,2,2,2,2,0,0,0,0,0,0,0,0],"split_type":[0,0,0,0,0,0,0,0,0,0,0,0,0,0,0],"sum_hessian":[3.302896E6,1.687644E6,1.615252E6,3.57493E5,1.330151E6,1.188003E6,4.27249E5,3.8613E4,3.1888E5,5.63695E5,7.66456E5,6.14022E5,5.73981E5,3.36607E5,9.0642E4],"tree_param":{"num_deleted":"0","num_feature":"20","num_nodes":"15","size_leaf_vector":"1"}},{"base_weights":[-4.374444E-5,-6.7324825E-2,9.324571E-2,-1.4725256E-1,-3.6302827E-2,6.486897E-2,2.1693282E-1,-2.4474873E-3,-1.2771066E-3,-6.397526E-4,-1.1072589E-4,3.9725687E-4,1.0170839E-3,1.9474116E-3,4.1686855E-3],"categories":[],"categories_nodes":[],"categories_segments":[],"categories_sizes":[],"default_left":[0,0,0,0,0,0,0,0,0,0,0,0,0,0,0],"id":39,"left_children":[1,3,5,7,9,11,13,-1,-1,-1,-1,-1,-1,-1,-1],"loss_changes":[2.073451E4,4.7588467E3,4.8582637E3,1.02239746E3,9.653281E2,1.0428638E3,1.1459883E3,0E0,0E0,0E0,0E0,0E0,0E0,0E0,0E0],"parents":[2147483647,0,0,1,1,2,2,3,3,4,4,5,5,6,6],"right_children":[2,4,6,8,10,12,14,-1,-1,-1,-1,-1,-1,-1,-1],"split_conditions":[1.38E-1,-2E-2,3.27E-1,-1.6E-1,6.3E-2,2.21E-1,5.69E-1,-2.4474873E-3,-1.2771066E-3,-6.397526E-4,-1.1072589E-4,3.9725687E-4,1.0170839E-3,1.9474116E-3,4.1686855E-3],"split_indices":[2,2,2,2,2,2,2,0,0,0,0,0,0,0,0],"split_type":[0,0,0,0,0,0,0,0,0,0,0,0,0,0,0],"sum_hessian":[3.303452E6,1.919264E6,1.384188E6,5.36633E5,1.382631E6,1.125885E6,2.58303E5,8.96E4,4.47033E5,6.59401E5,7.2323E5,6.69171E5,4.56714E5,2.32499E5,2.5804E4],"tree_param":{"num_deleted":"0","num_feature":"20","num_nodes":"15","size_leaf_vector":"1"}},{"base_weights":[5.3568133E-6,-7.671469E-2,8.02265E-2,-1.6866234E-1,-5.201018E-2,4.6123426E-2,1.8275906E-1,-2.975735E-3,-1.5300375E-3,-8.2149985E-4,-2.8695303E-4,2.0459274E-4,7.546159E-4,1.5532468E-3,3.252356E-3],"categories":[],"categories_nodes":[],"categories_segments":[],"categories_sizes":[],"default_left":[0,0,0,0,0,0,0,0,0,0,0,0,0,0,0],"id":40,"left_children":[1,3,5,7,9,11,13,-1,-1,-1,-1,-1,-1,-1,-1],"loss_changes":[2.033307E4,3.8359512E3,5.6471826E3,7.2186523E2,9.3535815E2,9.125032E2,1.5755469E3,0E0,0E0,0E0,0E0,0E0,0E0,0E0,0E0],"parents":[2147483647,0,0,1,1,2,2,3,3,4,4,5,5,6,6],"right_children":[2,4,6,8,10,12,14,-1,-1,-1,-1,-1,-1,-1,-1],"split_conditions":[1.14E-1,-5.3E-2,2.82E-1,-2.2E-1,3.4E-2,1.86E-1,4.67E-1,-2.975735E-3,-1.5300375E-3,-8.2149985E-4,-2.8695303E-4,2.0459274E-4,7.546159E-4,1.5532468E-3,3.252356E-3],"split_indices":[2,2,2,2,2,2,2,0,0,0,0,0,0,0,0],"split_type":[0,0,0,0,0,0,0,0,0,0,0,0,0,0,0],"sum_hessian":[3.303733E6,1.688717E6,1.615016E6,3.57634E5,1.331083E6,1.211923E6,4.03093E5,3.8734E4,3.189E5,5.80566E5,7.50517E5,6.46439E5,5.65484E5,3.3801E5,6.5083E4],"tree_param":{"num_deleted":"0","num_feature":"20","num_nodes":"15","size_leaf_vector":"1"}},{"base_weights":[2.3994427E-5,-5.880486E-2,1.0269908E-1,-1.2350655E-1,-1.9580938E-2,7.924879E-2,2.4724783E-1,-1.9067315E-3,-9.604538E-4,-4.1604275E-4,5.047998E-5,5.6431134E-4,1.2340144E-3,2.2644957E-3,4.9383426E-3],"categories":[],"categories_nodes":[],"categories_segments":[],"categories_sizes":[],"default_left":[0,0,0,0,0,0,0,0,0,0,0,0,0,0,0],"id":41,"left_children":[1,3,5,7,9,11,13,-1,-1,-1,-1,-1,-1,-1,-1],"loss_changes":[1.9953621E4,5.3298467E3,4.0788135E3,1.4619883E3,7.092031E2,1.0430547E3,8.612988E2,0E0,0E0,0E0,0E0,0E0,0E0,0E0,0E0],"parents":[2147483647,0,0,1,1,2,2,3,3,4,4,5,5,6,6],"right_children":[2,4,6,8,10,12,14,-1,-1,-1,-1,-1,-1,-1,-1],"split_conditions":[1.58E-1,1.6E-2,3.69E-1,-8.8E-2,9.3E-2,2.55E-1,6.44E-1,-1.9067315E-3,-9.604538E-4,-4.1604275E-4,5.047998E-5,5.6431134E-4,1.2340144E-3,2.2644957E-3,4.9383426E-3],"split_indices":[2,2,2,2,2,2,2,0,0,0,0,0,0,0,0],"split_type":[0,0,0,0,0,0,0,0,0,0,0,0,0,0,0],"sum_hessian":[3.303437E6,2.100139E6,1.203298E6,7.9264E5,1.307499E6,1.035336E6,1.67962E5,2.30024E5,5.62616E5,6.90262E5,6.17237E5,6.82585E5,3.52751E5,1.54899E5,1.3063E4],"tree_param":{"num_deleted":"0","num_feature":"20","num_nodes":"15","size_leaf_vector":"1"}},{"base_weights":[1.5548927E-5,-5.8212433E-2,1.0162538E-1,-1.2280826E-1,-1.9699002E-2,7.8432344E-2,2.44633E-1,-1.887351E-3,-9.540043E-4,-4.1510107E-4,4.976862E-5,5.585452E-4,1.221541E-3,2.241475E-3,4.8819664E-3],"categories":[],"categories_nodes":[],"categories_segments":[],"categories_sizes":[],"default_left":[0,0,0,0,0,0,0,0,0,0,0,0,0,0,0],"id":42,"left_children":[1,3,5,7,9,11,13,-1,-1,-1,-1,-1,-1,-1,-1],"loss_changes":[1.954801E4,5.2252583E3,3.9921055E3,1.4175459E3,7.081881E2,1.0223296E3,8.379404E2,0E0,0E0,0E0,0E0,0E0,0E0,0E0,0E0],"parents":[2147483647,0,0,1,1,2,2,3,3,4,4,5,5,6,6],"right_children":[2,4,6,8,10,12,14,-1,-1,-1,-1,-1,-1,-1,-1],"split_conditions":[1.58E-1,1.5E-2,3.69E-1,-8.8E-2,9.3E-2,2.55E-1,6.44E-1,-1.887351E-3,-9.540043E-4,-4.1510107E-4,4.976862E-5,5.585452E-4,1.221541E-3,2.241475E-3,4.8819664E-3],"split_indices":[2,2,2,2,2,2,2,0,0,0,0,0,0,0,0],"split_type":[0,0,0,0,0,0,0,0,0,0,0,0,0,0,0],"sum_hessian":[3.30396E6,2.100347E6,1.203613E6,7.84522E5,1.315825E6,1.035652E6,1.67961E5,2.30374E5,5.54148E5,6.98456E5,6.17369E5,6.8297E5,3.52682E5,1.54932E5,1.3029E4],"tree_param":{"num_deleted":"0","num_feature":"20","num_nodes":"15","size_leaf_vector":"1"}},{"base_weights":[-3.6715605E-6,-7.5379364E-2,7.692576E-2,-1.6604808E-1,-5.1797334E-2,4.2742286E-2,1.7357363E-1,-3.2279913E-3,-1.5337835E-3,-8.1465073E-4,-2.9460713E-4,1.755188E-4,6.984295E-4,1.4213884E-3,2.9051607E-3],"categories":[],"categories_nodes":[],"categories_segments":[],"categories_sizes":[],"default_left":[0,0,0,0,0,0,0,0,0,0,0,0,0,0,0],"id":43,"left_children":[1,3,5,7,9,11,13,-1,-1,-1,-1,-1,-1,-1,-1],"loss_changes":[1.9161018E4,3.5687031E3,5.4028066E3,6.841328E2,8.777532E2,8.247207E2,1.5706768E3,0E0,0E0,0E0,0E0,0E0,0E0,0E0,0E0],"parents":[2147483647,0,0,1,1,2,2,3,3,4,4,5,5,6,6],"right_children":[2,4,6,8,10,12,14,-1,-1,-1,-1,-1,-1,-1,-1],"split_conditions":[1.12E-1,-5.6E-2,2.76E-1,-2.47E-1,3.1E-2,1.81E-1,4.31E-1,-3.2279913E-3,-1.5337835E-3,-8.1465073E-4,-2.9460713E-4,1.755188E-4,6.984295E-4,1.4213884E-3,2.9051607E-3],"split_indices":[2,2,2,2,2,2,2,0,0,0,0,0,0,0,0],"split_type":[0,0,0,0,0,0,0,0,0,0,0,0,0,0,0],"sum_hessian":[3.304414E6,1.669062E6,1.635352E6,3.44503E5,1.324559E6,1.20807E6,4.27282E5,2.5761E4,3.18742E5,5.68916E5,7.55643E5,6.26102E5,5.81968E5,3.36761E5,9.0521E4],"tree_param":{"num_deleted":"0","num_feature":"20","num_nodes":"15","size_leaf_vector":"1"}},{"base_weights":[5.542748E-6,-6.1142456E-2,9.2978306E-2,-1.3544585E-1,-3.0027008E-2,6.667754E-2,2.1427715E-1,-2.2699551E-3,-1.1617669E-3,-5.626617E-4,-5.852275E-5,4.1775248E-4,1.0056001E-3,1.9118392E-3,3.997345E-3],"categories":[],"categories_nodes":[],"categories_segments":[],"categories_sizes":[],"default_left":[0,0,0,0,0,0,0,0,0,0,0,0,0,0,0],"id":44,"left_children":[1,3,5,7,9,11,13,-1,-1,-1,-1,-1,-1,-1,-1],"loss_changes":[1.8776795E4,4.6064077E3,4.180499E3,1.0373955E3,8.908004E2,9.086343E2,9.99959E2,0E0,0E0,0E0,0E0,0E0,0E0,0E0,0E0],"parents":[2147483647,0,0,1,1,2,2,3,3,4,4,5,5,6,6],"right_children":[2,4,6,8,10,12,14,-1,-1,-1,-1,-1,-1,-1,-1],"split_conditions":[1.46E-1,-1.2E-2,3.37E-1,-1.5E-1,7E-2,2.25E-1,5.69E-1,-2.2699551E-3,-1.1617669E-3,-5.626617E-4,-5.852275E-5,4.1775248E-4,1.0056001E-3,1.9118392E-3,3.997345E-3],"split_indices":[2,2,2,2,2,2,2,0,0,0,0,0,0,0,0],"split_type":[0,0,0,0,0,0,0,0,0,0,0,0,0,0,0],"sum_hessian":[3.302807E6,1.992406E6,1.310401E6,5.88078E5,1.404328E6,1.076902E6,2.33499E5,1.02253E5,4.85825E5,6.7341E5,7.30918E5,6.20708E5,4.56194E5,2.07645E5,2.5854E4],"tree_param":{"num_deleted":"0","num_feature":"20","num_nodes":"15","size_leaf_vector":"1"}},{"base_weights":[-1.1237976E-5,-7.217847E-2,7.725085E-2,-1.5866728E-1,-4.812488E-2,4.800462E-2,1.8577391E-1,-2.858107E-3,-1.4389008E-3,-7.531085E-4,-2.47628E-4,2.3933194E-4,8.115364E-4,1.5955563E-3,3.2998025E-3],"categories":[],"categories_nodes":[],"categories_segments":[],"categories_sizes":[],"default_left":[0,0,0,0,0,0,0,0,0,0,0,0,0,0,0],"id":45,"left_children":[1,3,5,7,9,11,13,-1,-1,-1,-1,-1,-1,-1,-1],"loss_changes":[1.8417629E4,3.5530127E3,5.063172E3,6.981826E2,8.4868164E2,1.0027046E3,1.2803213E3,0E0,0E0,0E0,0E0,0E0,0E0,0E0,0E0],"parents":[2147483647,0,0,1,1,2,2,3,3,4,4,5,5,6,6],"right_children":[2,4,6,8,10,12,14,-1,-1,-1,-1,-1,-1,-1,-1],"split_conditions":[1.16E-1,-5E-2,3E-1,-2.2E-1,4E-2,1.99E-1,4.92E-1,-2.858107E-3,-1.4389008E-3,-7.531085E-4,-2.47628E-4,2.3933194E-4,8.115364E-4,1.5955563E-3,3.2998025E-3],"split_indices":[2,2,2,2,2,2,2,0,0,0,0,0,0,0,0],"split_type":[0,0,0,0,0,0,0,0,0,0,0,0,0,0,0],"sum_hessian":[3.30314E6,1.707881E6,1.595259E6,3.71627E5,1.336254E6,1.256612E6,3.38647E5,3.8693E4,3.32934E5,6.17583E5,7.18671E5,7.27983E5,5.28629E5,2.86551E5,5.2096E4],"tree_param":{"num_deleted":"0","num_feature":"20","num_nodes":"15","size_leaf_vector":"1"}},{"base_weights":[1.5462809E-5,-5.5623405E-2,9.827037E-2,-1.2164308E-1,-2.0648966E-2,7.683001E-2,2.4229777E-1,-2.056007E-3,-1.0158779E-3,-4.397078E-4,2.980878E-5,5.4765155E-4,1.2008327E-3,2.2104753E-3,4.729985E-3],"categories":[],"categories_nodes":[],"categories_segments":[],"categories_sizes":[],"default_left":[0,0,0,0,0,0,0,0,0,0,0,0,0,0,0],"id":46,"left_children":[1,3,5,7,9,11,13,-1,-1,-1,-1,-1,-1,-1,-1],"loss_changes":[1.8058553E4,4.8697583E3,3.6879297E3,1.2297588E3,7.597741E2,9.92103E2,7.5853906E2,0E0,0E0,0E0,0E0,0E0,0E0,0E0,0E0],"parents":[2147483647,0,0,1,1,2,2,3,3,4,4,5,5,6,6],"right_children":[2,4,6,8,10,12,14,-1,-1,-1,-1,-1,-1,-1,-1],"split_conditions":[1.59E-1,8E-3,3.77E-1,-1.26E-1,8.7E-2,2.58E-1,6.44E-1,-2.056007E-3,-1.0158779E-3,-4.397078E-4,2.980878E-5,5.4765155E-4,1.2008327E-3,2.2104753E-3,4.729985E-3],"split_indices":[2,2,2,2,2,2,2,0,0,0,0,0,0,0,0],"split_type":[0,0,0,0,0,0,0,0,0,0,0,0,0,0,0],"sum_hessian":[3.303316E6,2.109033E6,1.194283E6,7.30361E5,1.378672E6,1.039536E6,1.54747E5,1.40823E5,5.89538E5,6.93858E5,6.84814E5,6.88376E5,3.5116E5,1.41697E5,1.305E4],"tree_param":{"num_deleted":"0","num_feature":"20","num_nodes":"15","size_leaf_vector":"1"}},{"base_weights":[-1.4761913E-6,-6.632187E-2,8.080438E-2,-1.4386764E-1,-3.9642975E-2,5.392769E-2,1.9369581E-1,-2.482575E-3,-1.2725969E-3,-6.536252E-4,-1.6550429E-4,2.9818315E-4,8.7558734E-4,1.6919174E-3,3.50015E-3],"categories":[],"categories_nodes":[],"categories_segments":[],"categories_sizes":[],"default_left":[0,0,0,0,0,0,0,0,0,0,0,0,0,0,0],"id":47,"left_children":[1,3,5,7,9,11,13,-1,-1,-1,-1,-1,-1,-1,-1],"loss_changes":[1.7705273E4,3.7539683E3,4.518616E3,8.052295E2,8.0184033E2,9.7532275E2,1.0968916E3,0E0,0E0,0E0,0E0,0E0,0E0,0E0,0E0],"parents":[2147483647,0,0,1,1,2,2,3,3,4,4,5,5,6,6],"right_children":[2,4,6,8,10,12,14,-1,-1,-1,-1,-1,-1,-1,-1],"split_conditions":[1.27E-1,-3.2E-2,3.17E-1,-1.85E-1,5.3E-2,2.1E-1,5.23E-1,-2.482575E-3,-1.2725969E-3,-6.536252E-4,-1.6550429E-4,2.9818315E-4,8.7558734E-4,1.6919174E-3,3.50015E-3],"split_indices":[2,2,2,2,2,2,2,0,0,0,0,0,0,0,0],"split_type":[0,0,0,0,0,0,0,0,0,0,0,0,0,0,0],"sum_hessian":[3.30379E6,1.814534E6,1.489256E6,4.64474E5,1.35006E6,1.202881E6,2.86375E5,6.3751E4,4.00723E5,6.387E5,7.1136E5,7.00622E5,5.02259E5,2.47569E5,3.8806E4],"tree_param":{"num_deleted":"0","num_feature":"20","num_nodes":"15","size_leaf_vector":"1"}},{"base_weights":[-3.7697188E-5,-5.3953238E-2,9.742883E-2,-1.1531763E-1,-1.7481439E-2,7.620855E-2,2.3752251E-1,-1.8084508E-3,-9.0330053E-4,-3.82007E-4,6.077525E-5,5.451438E-4,1.176854E-3,2.16818E-3,4.644795E-3],"categories":[],"categories_nodes":[],"categories_segments":[],"categories_sizes":[],"default_left":[0,0,0,0,0,0,0,0,0,0,0,0,0,0,0],"id":48,"left_children":[1,3,5,7,9,11,13,-1,-1,-1,-1,-1,-1,-1,-1],"loss_changes":[1.736237E4,4.7609546E3,3.4982158E3,1.2984346E3,6.5128125E2,9.1954297E2,7.2728613E2,0E0,0E0,0E0,0E0,0E0,0E0,0E0,0E0],"parents":[2147483647,0,0,1,1,2,2,3,3,4,4,5,5,6,6],"right_children":[2,4,6,8,10,12,14,-1,-1,-1,-1,-1,-1,-1,-1],"split_conditions":[1.61E-1,1.6E-2,3.77E-1,-9.2E-2,9.5E-2,2.58E-1,6.44E-1,-1.8084508E-3,-9.0330053E-4,-3.82007E-4,6.077525E-5,5.451438E-4,1.176854E-3,2.16818E-3,4.644795E-3],"split_indices":[2,2,2,2,2,2,2,0,0,0,0,0,0,0,0],"split_type":[0,0,0,0,0,0,0,0,0,0,0,0,0,0,0],"sum_hessian":[3.303994E6,2.127259E6,1.176735E6,7.93008E5,1.334251E6,1.021941E6,1.54794E5,2.18916E5,5.74092E5,7.0991E5,6.24341E5,6.70988E5,3.50953E5,1.41855E5,1.2939E4],"tree_param":{"num_deleted":"0","num_feature":"20","num_nodes":"15","size_leaf_vector":"1"}},{"base_weights":[8.530963E-8,-7.104177E-2,7.255364E-2,-1.5685634E-1,-4.872224E-2,3.9605044E-2,1.6208816E-1,-3.0765366E-3,-1.4466891E-3,-7.6634996E-4,-2.7707775E-4,1.5789551E-4,6.4401363E-4,1.299812E-3,2.6599544E-3],"categories":[],"categories_nodes":[],"categories_segments":[],"categories_sizes":[],"default_left":[0,0,0,0,0,0,0,0,0,0,0,0,0,0,0],"id":49,"left_children":[1,3,5,7,9,11,13,-1,-1,-1,-1,-1,-1,-1,-1],"loss_changes":[1.7027965E4,3.1970742E3,4.82159E3,6.3314746E2,7.7700977E2,7.0554443E2,1.4667568E3,0E0,0E0,0E0,0E0,0E0,0E0,0E0,0E0],"parents":[2147483647,0,0,1,1,2,2,3,3,4,4,5,5,6,6],"right_children":[2,4,6,8,10,12,14,-1,-1,-1,-1,-1,-1,-1,-1],"split_conditions":[1.12E-1,-5.6E-2,2.73E-1,-2.47E-1,3.1E-2,1.79E-1,4.17E-1,-3.0765366E-3,-1.4466891E-3,-7.6634996E-4,-2.7707775E-4,1.5789551E-4,6.4401363E-4,1.299812E-3,2.6599544E-3],"split_indices":[2,2,2,2,2,2,2,0,0,0,0,0,0,0,0],"split_type":[0,0,0,0,0,0,0,0,0,0,0,0,0,0,0],"sum_hessian":[3.303615E6,1.669197E6,1.634418E6,3.44531E5,1.324666E6,1.194752E6,4.39666E5,2.5761E4,3.1877E5,5.68949E5,7.55717E5,6.0943E5,5.85322E5,3.35882E5,1.03784E5],"tree_param":{"num_deleted":"0","num_feature":"20","num_nodes":"15","size_leaf_vector":"1"}},{"base_weights":[1.6110318E-5,-5.351449E-2,9.4454035E-2,-1.2334348E-1,-2.2860544E-2,7.3798425E-2,2.3317982E-1,-2.0850466E-3,-1.0468547E-3,-4.7401976E-4,1.05552535E-5,5.148452E-4,1.1326133E-3,2.12507E-3,4.591092E-3],"categories":[],"categories_nodes":[],"categories_segments":[],"categories_sizes":[],"default_left":[0,0,0,0,0,0,0,0,0,0,0,0,0,0,0],"id":50,"left_children":[1,3,5,7,9,11,13,-1,-1,-1,-1,-1,-1,-1,-1],"loss_changes":[1.6701338E4,4.513379E3,3.424747E3,1.0220488E3,8.6002936E2,9.160464E2,7.233496E2,0E0,0E0,0E0,0E0,0E0,0E0,0E0,0E0],"parents":[2147483647,0,0,1,1,2,2,3,3,4,4,5,5,6,6],"right_children":[2,4,6,8,10,12,14,-1,-1,-1,-1,-1,-1,-1,-1],"split_conditions":[1.59E-1,-4E-3,3.77E-1,-1.41E-1,8.1E-2,2.53E-1,6.44E-1,-2.0850466E-3,-1.0468547E-3,-4.7401976E-4,1.05552535E-5,5.148452E-4,1.1326133E-3,2.12507E-3,4.591092E-3],"split_indices":[2,2,2,2,2,2,3,0,0,0,0,0,0,0,0],"split_type":[0,0,0,0,0,0,0,0,0,0,0,0,0,0,0],"sum_hessian":[3.303714E6,2.108529E6,1.195185E6,6.4324E5,1.465289E6,1.040292E6,1.54893E5,1.15599E5,5.27641E5,7.23189E5,7.421E5,6.64538E5,3.75754E5,1.4191E5,1.2983E4],"tree_param":{"num_deleted":"0","num_feature":"20","num_nodes":"15","size_leaf_vector":"1"}},{"base_weights":[1.0626413E-5,-7.0045754E-2,7.069316E-2,-1.5593776E-1,-4.8624672E-2,4.164856E-2,1.6833065E-1,-3.026611E-3,-1.4361113E-3,-7.6374493E-4,-2.8055513E-4,1.8275429E-4,7.0436485E-4,1.4526838E-3,3.1264818E-3],"categories":[],"categories_nodes":[],"categories_segments":[],"categories_sizes":[],"default_left":[0,0,0,0,0,0,0,0,0,0,0,0,0,0,0],"id":51,"left_children":[1,3,5,7,9,11,13,-1,-1,-1,-1,-1,-1,-1,-1],"loss_changes":[1.6358881E4,3.0527036E3,4.663465E3,5.9895166E2,7.5799756E2,8.5281665E2,1.2548232E3,0E0,0E0,0E0,0E0,0E0,0E0,0E0,0E0],"parents":[2147483647,0,0,1,1,2,2,3,3,4,4,5,5,6,6],"right_children":[2,4,6,8,10,12,14,-1,-1,-1,-1,-1,-1,-1,-1],"split_conditions":[1.11E-1,-5.9E-2,2.89E-1,-2.47E-1,2.9E-2,1.89E-1,4.92E-1,-3.026611E-3,-1.4361113E-3,-7.6374493E-4,-2.8055513E-4,1.8275429E-4,7.0436485E-4,1.4526838E-3,3.1264818E-3],"split_indices":[2,2,2,2,2,2,2,0,0,0,0,0,0,0,0],"split_type":[0,0,0,0,0,0,0,0,0,0,0,0,0,0,0],"sum_hessian":[3.303646E6,1.659172E6,1.644474E6,3.31191E5,1.327981E6,1.267444E6,3.7703E5,2.5666E4,3.05525E5,5.65314E5,7.62667E5,6.99509E5,5.67935E5,3.25083E5,5.1947E4],"tree_param":{"num_deleted":"0","num_feature":"20","num_nodes":"15","size_leaf_vector":"1"}},{"base_weights":[-1.3939558E-5,-5.9201732E-2,8.202658E-2,-1.3111274E-1,-3.22271E-2,5.8395796E-2,1.9838138E-1,-2.263162E-3,-1.1460454E-3,-5.7007145E-4,-9.824299E-5,3.4674842E-4,9.1389444E-4,1.7674464E-3,3.7265006E-3],"categories":[],"categories_nodes":[],"categories_segments":[],"categories_sizes":[],"default_left":[0,0,0,0,0,0,0,0,0,0,0,0,0,0,0],"id":52,"left_children":[1,3,5,7,9,11,13,-1,-1,-1,-1,-1,-1,-1,-1],"loss_changes":[1.6046563E4,3.723734E3,3.8079668E3,8.229795E2,7.7498755E2,9.00937E2,8.8146387E2,0E0,0E0,0E0,0E0,0E0,0E0,0E0,0E0],"parents":[2147483647,0,0,1,1,2,2,3,3,4,4,5,5,6,6],"right_children":[2,4,6,8,10,12,14,-1,-1,-1,-1,-1,-1,-1,-1],"split_conditions":[1.38E-1,-2.2E-2,3.37E-1,-1.71E-1,6.2E-2,2.21E-1,5.69E-1,-2.263162E-3,-1.1460454E-3,-5.7007145E-4,-9.824299E-5,3.4674842E-4,9.1389444E-4,1.7674464E-3,3.7265006E-3],"split_indices":[2,2,2,2,2,2,2,0,0,0,0,0,0,0,0],"split_type":[0,0,0,0,0,0,0,0,0,0,0,0,0,0,0],"sum_hessian":[3.304618E6,1.919676E6,1.384942E6,5.2366E5,1.396016E6,1.151153E6,2.33789E5,7.7382E4,4.46278E5,6.62839E5,7.33177E5,6.69683E5,4.8147E5,2.0797E5,2.5819E4],"tree_param":{"num_deleted":"0","num_feature":"20","num_nodes":"15","size_leaf_vector":"1"}},{"base_weights":[-3.4186756E-5,-5.1063217E-2,9.328539E-2,-1.0890401E-1,-1.581742E-2,7.292757E-2,2.2670905E-1,-1.7042907E-3,-8.4382965E-4,-3.576373E-4,6.0497077E-5,5.2260526E-4,1.1190404E-3,2.064859E-3,4.469473E-3],"categories":[],"categories_nodes":[],"categories_segments":[],"categories_sizes":[],"default_left":[0,0,0,0,0,0,0,0,0,0,0,0,0,0,0],"id":53,"left_children":[1,3,5,7,9,11,13,-1,-1,-1,-1,-1,-1,-1,-1],"loss_changes":[1.5734816E4,4.3548496E3,3.1727666E3,1.2202197E3,5.789402E2,8.163633E2,6.886294E2,0E0,0E0,0E0,0E0,0E0,0E0,0E0,0E0],"parents":[2147483647,0,0,1,1,2,2,3,3,4,4,5,5,6,6],"right_children":[2,4,6,8,10,12,14,-1,-1,-1,-1,-1,-1,-1,-1],"split_conditions":[1.62E-1,1.8E-2,3.77E-1,-8.8E-2,9.5E-2,2.58E-1,6.44E-1,-1.7042907E-3,-8.4382965E-4,-3.576373E-4,6.0497077E-5,5.2260526E-4,1.1190404E-3,2.064859E-3,4.469473E-3],"split_indices":[2,2,2,2,2,2,2,0,0,0,0,0,0,0,0],"split_type":[0,0,0,0,0,0,0,0,0,0,0,0,0,0,0],"sum_hessian":[3.304238E6,2.136149E6,1.168089E6,8.08819E5,1.32733E6,1.013457E6,1.54632E5,2.30492E5,5.78327E5,6.94152E5,6.33178E5,6.62286E5,3.51171E5,1.41629E5,1.3003E4],"tree_param":{"num_deleted":"0","num_feature":"20","num_nodes":"15","size_leaf_vector":"1"}},{"base_weights":[-1.7170883E-5,-6.8438694E-2,6.8251625E-2,-1.5355578E-1,-4.8034947E-2,3.7085734E-2,1.5433618E-1,-2.9582207E-3,-1.410682E-3,-7.467324E-4,-2.7567538E-4,1.4524892E-4,6.1313325E-4,1.2610265E-3,2.6309981E-3],"categories":[],"categories_nodes":[],"categories_segments":[],"categories_sizes":[],"default_left":[0,0,0,0,0,0,0,0,0,0,0,0,0,0,0],"id":54,"left_children":[1,3,5,7,9,11,13,-1,-1,-1,-1,-1,-1,-1,-1],"loss_changes":[1.5434708E4,2.8661138E3,4.4375444E3,5.66875E2,7.257969E2,6.637654E2,1.3500234E3,0E0,0E0,0E0,0E0,0E0,0E0,0E0,0E0],"parents":[2147483647,0,0,1,1,2,2,3,3,4,4,5,5,6,6],"right_children":[2,4,6,8,10,12,14,-1,-1,-1,-1,-1,-1,-1,-1],"split_conditions":[1.1E-1,-6.2E-2,2.73E-1,-2.47E-1,2.9E-2,1.79E-1,4.31E-1,-2.9582207E-3,-1.410682E-3,-7.467324E-4,-2.7567538E-4,1.4524892E-4,6.1313325E-4,1.2610265E-3,2.6309981E-3],"split_indices":[2,2,2,2,2,2,2,0,0,0,0,0,0,0,0],"split_type":[0,0,0,0,0,0,0,0,0,0,0,0,0,0,0],"sum_hessian":[3.304328E6,1.650318E6,1.65401E6,3.19108E5,1.33121E6,1.214365E6,4.39645E5,2.5748E4,2.9336E5,5.78409E5,7.52801E5,6.28813E5,5.85552E5,3.49041E5,9.0604E4],"tree_param":{"num_deleted":"0","num_feature":"20","num_nodes":"15","size_leaf_vector":"1"}},{"base_weights":[4.7061753E-6,-5.2978974E-2,8.63864E-2,-1.2061903E-1,-2.4819883E-2,6.534061E-2,2.1011618E-1,-2.1243233E-3,-1.0458344E-3,-4.9023435E-4,-2.8189583E-5,4.2241334E-4,9.862594E-4,1.9264875E-3,4.3993737E-3],"categories":[],"categories_nodes":[],"categories_segments":[],"categories_sizes":[],"default_left":[0,0,0,0,0,0,0,0,0,0,0,0,0,0,0],"id":55,"left_children":[1,3,5,7,9,11,13,-1,-1,-1,-1,-1,-1,-1,-1],"loss_changes":[1.5118083E4,3.8996172E3,3.2700752E3,8.860049E2,7.697724E2,8.251802E2,7.327544E2,0E0,0E0,0E0,0E0,0E0,0E0,0E0,0E0],"parents":[2147483647,0,0,1,1,2,2,3,3,4,4,5,5,6,6],"right_children":[2,4,6,8,10,12,14,-1,-1,-1,-1,-1,-1,-1,-1],"split_conditions":[1.52E-1,-1E-2,3.61E-1,-1.6E-1,7.3E-2,2.36E-1,6.44E-1,-2.1243233E-3,-1.0458344E-3,-4.9023435E-4,-2.8189583E-5,4.2241334E-4,9.862594E-4,1.9264875E-3,4.3993737E-3],"split_indices":[2,2,2,2,2,2,3,0,0,0,0,0,0,0,0],"split_type":[0,0,0,0,0,0,0,0,0,0,0,0,0,0,0],"sum_hessian":[3.303183E6,2.047385E6,1.255798E6,6.01805E5,1.44558E6,1.073246E6,1.82552E5,8.9478E4,5.12327E5,6.88333E5,7.57247E5,6.33567E5,4.39679E5,1.69659E5,1.2893E4],"tree_param":{"num_deleted":"0","num_feature":"20","num_nodes":"15","size_leaf_vector":"1"}},{"base_weights":[-1.1449103E-5,-6.325555E-2,7.096628E-2,-1.3791727E-1,-4.0284295E-2,4.569083E-2,1.726368E-1,-2.6131426E-3,-1.251106E-3,-6.395049E-4,-1.9115098E-4,2.3599781E-4,7.643999E-4,1.5103279E-3,3.2346826E-3],"categories":[],"categories_nodes":[],"categories_segments":[],"categories_sizes":[],"default_left":[0,0,0,0,0,0,0,0,0,0,0,0,0,0,0],"id":56,"left_children":[1,3,5,7,9,11,13,-1,-1,-1,-1,-1,-1,-1,-1],"loss_changes":[1.4830557E4,2.996374E3,4.000418E3,6.495615E2,6.693423E2,8.4691016E2,1.00994434E3,0E0,0E0,0E0,0E0,0E0,0E0,0E0,0E0],"parents":[2147483647,0,0,1,1,2,2,3,3,4,4,5,5,6,6],"right_children":[2,4,6,8,10,12,14,-1,-1,-1,-1,-1,-1,-1,-1],"split_conditions":[1.2E-1,-4.2E-2,3.09E-1,-2.2E-1,4.6E-2,2.04E-1,5.23E-1,-2.6131426E-3,-1.251106E-3,-6.395049E-4,-1.9115098E-4,2.3599781E-4,7.643999E-4,1.5103279E-3,3.2346826E-3],"split_indices":[2,2,2,2,2,2,2,0,0,0,0,0,0,0,0],"split_type":[0,0,0,0,0,0,0,0,0,0,0,0,0,0,0],"sum_hessian":[3.30381E6,1.747085E6,1.556725E6,4.11056E5,1.336029E6,1.246776E6,3.09949E5,3.8648E4,3.72408E5,6.3081E5,7.05219E5,7.25534E5,5.21242E5,2.71118E5,3.8831E4],"tree_param":{"num_deleted":"0","num_feature":"20","num_nodes":"15","size_leaf_vector":"1"}},{"base_weights":[-1.3866893E-5,-4.9079884E-2,8.969014E-2,-1.04685664E-1,-1.5202849E-2,7.0956916E-2,2.2442967E-1,-1.6907302E-3,-8.275286E-4,-3.4372273E-4,5.8325026E-5,5.082648E-4,1.0994244E-3,2.0356954E-3,4.3182885E-3],"categories":[],"categories_nodes":[],"categories_segments":[],"categories_sizes":[],"default_left":[0,0,0,0,0,0,0,0,0,0,0,0,0,0,0],"id":57,"left_children":[1,3,5,7,9,11,13,-1,-1,-1,-1,-1,-1,-1,-1],"loss_changes":[1.4540526E4,4.0228037E3,2.9483418E3,1.1417178E3,5.351105E2,8.048042E2,6.167578E2,0E0,0E0,0E0,0E0,0E0,0E0,0E0,0E0],"parents":[2147483647,0,0,1,1,2,2,3,3,4,4,5,5,6,6],"right_children":[2,4,6,8,10,12,14,-1,-1,-1,-1,-1,-1,-1,-1],"split_conditions":[1.62E-1,1.8E-2,3.85E-1,-9.7E-2,9.5E-2,2.61E-1,6.44E-1,-1.6907302E-3,-8.275286E-4,-3.4372273E-4,5.8325026E-5,5.082648E-4,1.0994244E-3,2.0356954E-3,4.3182885E-3],"split_indices":[2,2,2,2,2,2,2,0,0,0,0,0,0,0,0],"split_type":[0,0,0,0,0,0,0,0,0,0,0,0,0,0,0],"sum_hessian":[3.303598E6,2.135519E6,1.168079E6,8.08479E5,1.32704E6,1.025502E6,1.42577E5,2.05422E5,6.03057E5,6.94314E5,6.32726E5,6.76295E5,3.49207E5,1.29549E5,1.3028E4],"tree_param":{"num_deleted":"0","num_feature":"20","num_nodes":"15","size_leaf_vector":"1"}},{"base_weights":[-3.0404985E-7,-5.712386E-2,7.5560674E-2,-1.2944642E-1,-3.3418663E-2,5.216993E-2,1.8082716E-1,-2.386865E-3,-1.1582101E-3,-5.762877E-4,-1.1926209E-4,3.0329084E-4,8.2953484E-4,1.6166735E-3,3.5327687E-3],"categories":[],"categories_nodes":[],"categories_segments":[],"categories_sizes":[],"default_left":[0,0,0,0,0,0,0,0,0,0,0,0,0,0,0],"id":58,"left_children":[1,3,5,7,9,11,13,-1,-1,-1,-1,-1,-1,-1,-1],"loss_changes":[1.4260801E4,3.225708E3,3.5023462E3,6.913037E2,7.3734033E2,7.8247266E2,8.543965E2,0E0,0E0,0E0,0E0,0E0,0E0,0E0,0E0],"parents":[2147483647,0,0,1,1,2,2,3,3,4,4,5,5,6,6],"right_children":[2,4,6,8,10,12,14,-1,-1,-1,-1,-1,-1,-1,-1],"split_conditions":[1.34E-1,-3.2E-2,3.27E-1,-2E-1,5.6E-2,2.17E-1,5.69E-1,-2.386865E-3,-1.1582101E-3,-5.762877E-4,-1.1926209E-4,3.0329084E-4,8.2953484E-4,1.6166735E-3,3.5327687E-3],"split_indices":[2,2,2,2,2,2,2,0,0,0,0,0,0,0,0],"split_type":[0,0,0,0,0,0,0,0,0,0,0,0,0,0,0],"sum_hessian":[3.30393E6,1.881517E6,1.422413E6,4.64466E5,1.417051E6,1.16381E6,2.58603E5,5.1506E4,4.1296E5,6.66393E5,7.50658E5,6.80792E5,4.83018E5,2.32746E5,2.5857E4],"tree_param":{"num_deleted":"0","num_feature":"20","num_nodes":"15","size_leaf_vector":"1"}},{"base_weights":[-1.0046326E-5,-4.8120517E-2,8.795429E-2,-1.0953399E-1,-1.858811E-2,6.95486E-2,2.2019657E-1,-1.8732891E-3,-9.186418E-4,-4.0497005E-4,2.7767966E-5,4.9821025E-4,1.0774467E-3,1.9980897E-3,4.245785E-3],"categories":[],"categories_nodes":[],"categories_segments":[],"categories_sizes":[],"default_left":[0,0,0,0,0,0,0,0,0,0,0,0,0,0,0],"id":59,"left_children":[1,3,5,7,9,11,13,-1,-1,-1,-1,-1,-1,-1,-1],"loss_changes":[1.3982991E4,3.8738691E3,2.8433857E3,9.533965E2,6.751267E2,7.727036E2,5.946343E2,0E0,0E0,0E0,0E0,0E0,0E0,0E0,0E0],"parents":[2147483647,0,0,1,1,2,2,3,3,4,4,5,5,6,6],"right_children":[2,4,6,8,10,12,14,-1,-1,-1,-1,-1,-1,-1,-1],"split_conditions":[1.62E-1,3E-3,3.85E-1,-1.33E-1,8.5E-2,2.61E-1,6.44E-1,-1.8732891E-3,-9.186418E-4,-4.0497005E-4,2.7767966E-5,4.9821025E-4,1.0774467E-3,1.9980897E-3,4.245785E-3],"split_indices":[2,2,2,2,2,2,3,0,0,0,0,0,0,0,0],"split_type":[0,0,0,0,0,0,0,0,0,0,0,0,0,0,0],"sum_hessian":[3.304103E6,2.135908E6,1.168195E6,6.93582E5,1.442326E6,1.02547E6,1.42725E5,1.28375E5,5.65207E5,7.12097E5,7.30229E5,6.76218E5,3.49252E5,1.29781E5,1.2944E4],"tree_param":{"num_deleted":"0","num_feature":"20","num_nodes":"15","size_leaf_vector":"1"}},{"base_weights":[-1.3569109E-5,-6.4523466E-2,6.433552E-2,-1.4523596E-1,-4.5176994E-2,3.9070543E-2,1.5894766E-1,-2.8197034E-3,-1.3321973E-3,-7.052274E-4,-2.619748E-4,1.7684628E-4,6.7774317E-4,1.3623602E-3,2.8828585E-3],"categories":[],"categories_nodes":[],"categories_segments":[],"categories_sizes":[],"default_left":[0,0,0,0,0,0,0,0,0,0,0,0,0,0,0],"id":60,"left_children":[1,3,5,7,9,11,13,-1,-1,-1,-1,-1,-1,-1,-1],"loss_changes":[1.3714575E4,2.5762188E3,3.9535781E3,5.240845E2,6.4019946E2,8.013136E2,1.0239199E3,0E0,0E0,0E0,0E0,0E0,0E0,0E0,0E0],"parents":[2147483647,0,0,1,1,2,2,3,3,4,4,5,5,6,6],"right_children":[2,4,6,8,10,12,14,-1,-1,-1,-1,-1,-1,-1,-1],"split_conditions":[1.1E-1,-6.2E-2,2.97E-1,-2.47E-1,2.8E-2,1.94E-1,4.92E-1,-2.8197034E-3,-1.3321973E-3,-7.052274E-4,-2.619748E-4,1.7684628E-4,6.7774317E-4,1.3623602E-3,2.8828585E-3],"split_indices":[2,2,2,2,2,2,2,0,0,0,0,0,0,0,0],"split_type":[0,0,0,0,0,0,0,0,0,0,0,0,0,0,0],"sum_hessian":[3.303797E6,1.649837E6,1.65396E6,3.18996E5,1.330841E6,1.305377E6,3.48583E5,2.5767E4,2.93229E5,5.69848E5,7.60993E5,7.48044E5,5.57333E5,2.96517E5,5.2066E4],"tree_param":{"num_deleted":"0","num_feature":"20","num_nodes":"15","size_leaf_vector":"1"}},{"base_weights":[-9.038963E-6,-4.6629075E-2,8.723574E-2,-1.0068548E-1,-1.4144693E-2,6.900865E-2,2.1590465E-1,-1.582958E-3,-7.7747577E-4,-3.248831E-4,6.626366E-5,4.961294E-4,1.0558763E-3,1.9598433E-3,4.166226E-3],"categories":[],"categories_nodes":[],"categories_segments":[],"categories_sizes":[],"default_left":[0,0,0,0,0,0,0,0,0,0,0,0,0,0,0],"id":61,"left_children":[1,3,5,7,9,11,13,-1,-1,-1,-1,-1,-1,-1,-1],"loss_changes":[1.3436942E4,3.780794E3,2.6982568E3,1.0679824E3,5.1242676E2,7.14978E2,5.707163E2,0E0,0E0,0E0,0E0,0E0,0E0,0E0,0E0],"parents":[2147483647,0,0,1,1,2,2,3,3,4,4,5,5,6,6],"right_children":[2,4,6,8,10,12,14,-1,-1,-1,-1,-1,-1,-1,-1],"split_conditions":[1.64E-1,1.8E-2,3.85E-1,-8.8E-2,9.7E-2,2.61E-1,6.44E-1,-1.582958E-3,-7.7747577E-4,-3.248831E-4,6.626366E-5,4.961294E-4,1.0558763E-3,1.9598433E-3,4.166226E-3],"split_indices":[2,2,2,2,2,2,3,0,0,0,0,0,0,0,0],"split_type":[0,0,0,0,0,0,0,0,0,0,0,0,0,0,0],"sum_hessian":[3.303605E6,2.153085E6,1.15052E6,8.08192E5,1.344893E6,1.007763E6,1.42757E5,2.30149E5,5.78043E5,7.14178E5,6.30715E5,6.58566E5,3.49197E5,1.2987E5,1.2887E4],"tree_param":{"num_deleted":"0","num_feature":"20","num_nodes":"15","size_leaf_vector":"1"}},{"base_weights":[3.3150448E-6,-5.151234E-2,7.7438734E-2,-1.15858234E-1,-2.6076768E-2,5.6851327E-2,1.8840988E-1,-2.0743238E-3,-1.0121579E-3,-4.910942E-4,-5.9893075E-5,3.5568143E-4,8.7980164E-4,1.7333007E-3,4.1268016E-3],"categories":[],"categories_nodes":[],"categories_segments":[],"categories_sizes":[],"default_left":[0,0,0,0,0,0,0,0,0,0,0,0,0,0,0],"id":62,"left_children":[1,3,5,7,9,11,13,-1,-1,-1,-1,-1,-1,-1,-1],"loss_changes":[1.3179204E4,3.2470352E3,3.0153296E3,7.5362305E2,6.5785236E2,7.3758765E2,6.984404E2,0E0,0E0,0E0,0E0,0E0,0E0,0E0,0E0],"parents":[2147483647,0,0,1,1,2,2,3,3,4,4,5,5,6,6],"right_children":[2,4,6,8,10,12,14,-1,-1,-1,-1,-1,-1,-1,-1],"split_conditions":[1.45E-1,-1.6E-2,3.49E-1,-1.71E-1,6.6E-2,2.3E-1,6.44E-1,-2.0743238E-3,-1.0121579E-3,-4.910942E-4,-5.9893075E-5,3.5568143E-4,8.7980164E-4,1.7333007E-3,4.1268016E-3],"split_indices":[2,2,2,2,2,2,2,0,0,0,0,0,0,0,0],"split_type":[0,0,0,0,0,0,0,0,0,0,0,0,0,0,0],"sum_hessian":[3.303772E6,1.983923E6,1.319849E6,5.62055E5,1.421868E6,1.113309E6,2.0654E5,7.748E4,4.84575E5,6.62375E5,7.59493E5,6.61224E5,4.52085E5,1.93529E5,1.3011E4],"tree_param":{"num_deleted":"0","num_feature":"20","num_nodes":"15","size_leaf_vector":"1"}},{"base_weights":[6.526984E-6,-4.573077E-2,8.555787E-2,-9.9547915E-2,-1.4374722E-2,6.764E-2,2.1198545E-1,-1.6852762E-3,-8.104989E-4,-3.3207293E-4,5.6125482E-5,4.802336E-4,1.0243361E-3,1.9218063E-3,4.0853056E-3],"categories":[],"categories_nodes":[],"categories_segments":[],"categories_sizes":[],"default_left":[0,0,0,0,0,0,0,0,0,0,0,0,0,0,0],"id":63,"left_children":[1,3,5,7,9,11,13,-1,-1,-1,-1,-1,-1,-1,-1],"loss_changes":[1.2929904E4,3.6336196E3,2.6077568E3,1.0114785E3,5.1212866E2,6.881802E2,5.561538E2,0E0,0E0,0E0,0E0,0E0,0E0,0E0,0E0],"parents":[2147483647,0,0,1,1,2,2,3,3,4,4,5,5,6,6],"right_children":[2,4,6,8,10,12,14,-1,-1,-1,-1,-1,-1,-1,-1],"split_conditions":[1.64E-1,1.6E-2,3.85E-1,-1.13E-1,9.4E-2,2.58E-1,6.44E-1,-1.6852762E-3,-8.104989E-4,-3.3207293E-4,5.6125482E-5,4.802336E-4,1.0243361E-3,1.9218063E-3,4.0853056E-3],"split_indices":[2,2,2,2,2,2,2,0,0,0,0,0,0,0,0],"split_type":[0,0,0,0,0,0,0,0,0,0,0,0,0,0,0],"sum_hessian":[3.304439E6,2.153265E6,1.151174E6,7.92712E5,1.360553E6,1.008278E6,1.42896E5,1.67625E5,6.25087E5,7.00511E5,6.60042E5,6.44763E5,3.63515E5,1.29817E5,1.3079E4],"tree_param":{"num_deleted":"0","num_feature":"20","num_nodes":"15","size_leaf_vector":"1"}},{"base_weights":[1.2930386E-5,-6.2001754E-2,6.1882526E-2,-1.3985343E-1,-4.3351855E-2,3.796216E-2,1.5460081E-1,-3.3448269E-3,-1.3166316E-3,-6.647629E-4,-2.4209985E-4,1.7666827E-4,6.6740235E-4,1.3560359E-3,3.0099407E-3],"categories":[],"categories_nodes":[],"categories_segments":[],"categories_sizes":[],"default_left":[0,0,0,0,0,0,0,0,0,0,0,0,0,0,0],"id":64,"left_children":[1,3,5,7,9,11,13,-1,-1,-1,-1,-1,-1,-1,-1],"loss_changes":[1.2675065E4,2.3954258E3,3.6676616E3,5.0821777E2,5.8915283E2,7.67781E2,9.4313525E2,0E0,0E0,0E0,0E0,0E0,0E0,0E0,0E0],"parents":[2147483647,0,0,1,1,2,2,3,3,4,4,5,5,6,6],"right_children":[2,4,6,8,10,12,14,-1,-1,-1,-1,-1,-1,-1,-1],"split_conditions":[1.1E-1,-6.2E-2,3E-1,-2.94E-1,3.2E-2,1.97E-1,5.23E-1,-3.3448269E-3,-1.3166316E-3,-6.647629E-4,-2.4209985E-4,1.7666827E-4,6.6740235E-4,1.3560359E-3,3.0099407E-3],"split_indices":[2,2,2,2,2,2,2,0,0,0,0,0,0,0,0],"split_type":[0,0,0,0,0,0,0,0,0,0,0,0,0,0,0],"sum_hessian":[3.303529E6,1.64983E6,1.653699E6,3.18845E5,1.330985E6,1.314558E6,3.39141E5,1.2874E4,3.05971E5,6.02785E5,7.282E5,7.70896E5,5.43662E5,3.00188E5,3.8953E4],"tree_param":{"num_deleted":"0","num_feature":"20","num_nodes":"15","size_leaf_vector":"1"}},{"base_weights":[8.367792E-6,-5.459711E-2,6.888555E-2,-1.23850405E-1,-3.3057157E-2,4.6656948E-2,1.6603833E-1,-2.4266234E-3,-1.122671E-3,-5.549816E-4,-1.2859747E-4,2.5928632E-4,7.489357E-4,1.4402985E-3,2.9822662E-3],"categories":[],"categories_nodes":[],"categories_segments":[],"categories_sizes":[],"default_left":[0,0,0,0,0,0,0,0,0,0,0,0,0,0,0],"id":65,"left_children":[1,3,5,7,9,11,13,-1,-1,-1,-1,-1,-1,-1,-1],"loss_changes":[1.2426771E4,2.7491636E3,3.1553193E3,6.017002E2,6.3714856E2,6.959397E2,7.914282E2,0E0,0E0,0E0,0E0,0E0,0E0,0E0,0E0],"parents":[2147483647,0,0,1,1,2,2,3,3,4,4,5,5,6,6],"right_children":[2,4,6,8,10,12,14,-1,-1,-1,-1,-1,-1,-1,-1],"split_conditions":[1.3E-1,-3.7E-2,3.22E-1,-2.2E-1,5.3E-2,2.12E-1,5.23E-1,-2.4266234E-3,-1.122671E-3,-5.549816E-4,-1.2859747E-4,2.5928632E-4,7.489357E-4,1.4402985E-3,2.9822662E-3],"split_indices":[2,2,2,2,2,2,2,0,0,0,0,0,0,0,0],"split_type":[0,0,0,0,0,0,0,0,0,0,0,0,0,0,0],"sum_hessian":[3.304049E6,1.84296E6,1.461089E6,4.37226E5,1.405734E6,1.189038E6,2.72051E5,3.8838E4,3.98388E5,6.65882E5,7.39852E5,6.85684E5,5.03354E5,2.33223E5,3.8828E4],"tree_param":{"num_deleted":"0","num_feature":"20","num_nodes":"15","size_leaf_vector":"1"}},{"base_weights":[1.543529E-7,-4.4156317E-2,8.357478E-2,-1.0412916E-1,-1.7515393E-2,6.603363E-2,2.0616162E-1,-1.8056062E-3,-8.8052487E-4,-3.97886E-4,2.147793E-5,4.812352E-4,1.0149002E-3,1.8691381E-3,3.9976574E-3],"categories":[],"categories_nodes":[],"categories_segments":[],"categories_sizes":[],"default_left":[0,0,0,0,0,0,0,0,0,0,0,0,0,0,0],"id":66,"left_children":[1,3,5,7,9,11,13,-1,-1,-1,-1,-1,-1,-1,-1],"loss_changes":[1.2190727E4,3.4533633E3,2.4556016E3,8.168843E2,6.554557E2,6.3440625E2,5.326294E2,0E0,0E0,0E0,0E0,0E0,0E0,0E0,0E0],"parents":[2147483647,0,0,1,1,2,2,3,3,4,4,5,5,6,6],"right_children":[2,4,6,8,10,12,14,-1,-1,-1,-1,-1,-1,-1,-1],"split_conditions":[1.65E-1,-1E-3,3.85E-1,-1.41E-1,8.1E-2,2.64E-1,6.44E-1,-1.8056062E-3,-8.8052487E-4,-3.97886E-4,2.147793E-5,4.812352E-4,1.0149002E-3,1.8691381E-3,3.9976574E-3],"split_indices":[2,2,2,2,2,2,3,0,0,0,0,0,0,0,0],"split_type":[0,0,0,0,0,0,0,0,0,0,0,0,0,0,0],"sum_hessian":[3.303395E6,2.161416E6,1.141979E6,6.64814E5,1.496602E6,9.99028E5,1.42951E5,1.15534E5,5.4928E5,7.01728E5,7.94874E5,6.6375E5,3.35278E5,1.30026E5,1.2925E4],"tree_param":{"num_deleted":"0","num_feature":"20","num_nodes":"15","size_leaf_vector":"1"}},{"base_weights":[-2.020649E-5,-6.094191E-2,5.9343785E-2,-1.3772684E-1,-4.309701E-2,3.307599E-2,1.3900025E-1,-3.264765E-3,-1.2946263E-3,-6.610646E-4,-2.5057743E-4,1.2969768E-4,5.6155585E-4,1.1496572E-3,2.4336188E-3],"categories":[],"categories_nodes":[],"categories_segments":[],"categories_sizes":[],"default_left":[0,0,0,0,0,0,0,0,0,0,0,0,0,0,0],"id":67,"left_children":[1,3,5,7,9,11,13,-1,-1,-1,-1,-1,-1,-1,-1],"loss_changes":[1.1944612E4,2.2334434E3,3.5000889E3,4.794253E2,5.489822E2,5.837394E2,1.0404648E3,0E0,0E0,0E0,0E0,0E0,0E0,0E0,0E0],"parents":[2147483647,0,0,1,1,2,2,3,3,4,4,5,5,6,6],"right_children":[2,4,6,8,10,12,14,-1,-1,-1,-1,-1,-1,-1,-1],"split_conditions":[1.08E-1,-6.5E-2,2.79E-1,-2.94E-1,2.8E-2,1.82E-1,4.47E-1,-3.264765E-3,-1.2946263E-3,-6.610646E-4,-2.5057743E-4,1.2969768E-4,5.6155585E-4,1.1496572E-3,2.4336188E-3],"split_indices":[2,2,2,2,2,2,2,0,0,0,0,0,0,0,0],"split_type":[0,0,0,0,0,0,0,0,0,0,0,0,0,0,0],"sum_hessian":[3.302757E6,1.629993E6,1.672764E6,3.07376E5,1.322617E6,1.257942E6,4.14822E5,1.2892E4,2.94484E5,5.81236E5,7.41381E5,6.72277E5,5.85665E5,3.37173E5,7.7649E4],"tree_param":{"num_deleted":"0","num_feature":"20","num_nodes":"15","size_leaf_vector":"1"}},{"base_weights":[1.5421136E-7,-4.5581512E-2,7.777296E-2,-1.08336695E-1,-2.1630852E-2,5.9671726E-2,1.9135478E-1,-2.072881E-3,-9.6007175E-4,-4.4423278E-4,-2.0916897E-5,3.982012E-4,9.019645E-4,1.7448864E-3,3.9176694E-3],"categories":[],"categories_nodes":[],"categories_segments":[],"categories_sizes":[],"default_left":[0,0,0,0,0,0,0,0,0,0,0,0,0,0,0],"id":68,"left_children":[1,3,5,7,9,11,13,-1,-1,-1,-1,-1,-1,-1,-1],"loss_changes":[1.1713258E4,3.1311177E3,2.51021E3,7.020322E2,6.714763E2,6.3814526E2,5.6723047E2,0E0,0E0,0E0,0E0,0E0,0E0,0E0,0E0],"parents":[2147483647,0,0,1,1,2,2,3,3,4,4,5,5,6,6],"right_children":[2,4,6,8,10,12,14,-1,-1,-1,-1,-1,-1,-1,-1],"split_conditions":[1.56E-1,-1.4E-2,3.69E-1,-1.85E-1,7.1E-2,2.43E-1,6.44E-1,-2.072881E-3,-9.6007175E-4,-4.4423278E-4,-2.0916897E-5,3.982012E-4,9.019645E-4,1.7448864E-3,3.9176694E-3],"split_indices":[2,2,2,2,2,2,2,0,0,0,0,0,0,0,0],"split_type":[0,0,0,0,0,0,0,0,0,0,0,0,0,0,0],"sum_hessian":[3.304148E6,2.083207E6,1.220941E6,5.75441E5,1.507766E6,1.053111E6,1.6783E5,6.3755E4,5.11686E5,6.95945E5,8.11821E5,6.38117E5,4.14994E5,1.54804E5,1.3026E4],"tree_param":{"num_deleted":"0","num_feature":"20","num_nodes":"15","size_leaf_vector":"1"}},{"base_weights":[-6.565565E-6,-5.5019695E-2,6.3200146E-2,-1.2648535E-1,-3.598763E-2,4.1796003E-2,1.5679659E-1,-2.6312598E-3,-1.1628297E-3,-5.7977583E-4,-1.666761E-4,2.1567242E-4,6.929258E-4,1.3625738E-3,2.8752233E-3],"categories":[],"categories_nodes":[],"categories_segments":[],"categories_sizes":[],"default_left":[0,0,0,0,0,0,0,0,0,0,0,0,0,0,0],"id":69,"left_children":[1,3,5,7,9,11,13,-1,-1,-1,-1,-1,-1,-1,-1],"loss_changes":[1.1488029E4,2.402544E3,3.0799824E3,5.1783545E2,5.926255E2,6.9598315E2,7.682666E2,0E0,0E0,0E0,0E0,0E0,0E0,0E0,0E0],"parents":[2147483647,0,0,1,1,2,2,3,3,4,4,5,5,6,6],"right_children":[2,4,6,8,10,12,14,-1,-1,-1,-1,-1,-1,-1,-1],"split_conditions":[1.22E-1,-5E-2,3.17E-1,-2.47E-1,4.4E-2,2.06E-1,5.23E-1,-2.6312598E-3,-1.1628297E-3,-5.7977583E-4,-1.666761E-4,2.1567242E-4,6.929258E-4,1.3625738E-3,2.8752233E-3],"split_indices":[2,2,2,2,2,2,2,0,0,0,0,0,0,0,0],"split_type":[0,0,0,0,0,0,0,0,0,0,0,0,0,0,0],"sum_hessian":[3.303815E6,1.766398E6,1.537417E6,3.7148E5,1.394918E6,1.251271E6,2.86146E5,2.5808E4,3.45672E5,6.5238E5,7.42538E5,7.20911E5,5.3036E5,2.47294E5,3.8852E4],"tree_param":{"num_deleted":"0","num_feature":"20","num_nodes":"15","size_leaf_vector":"1"}},{"base_weights":[9.3349645E-6,-4.243851E-2,8.0336384E-2,-9.501278E-2,-1.4296186E-2,6.42868E-2,2.0491543E-1,-1.6162356E-3,-7.781612E-4,-3.2934733E-4,4.665607E-5,4.6234537E-4,9.87295E-4,1.8492548E-3,3.859832E-3],"categories":[],"categories_nodes":[],"categories_segments":[],"categories_sizes":[],"default_left":[0,0,0,0,0,0,0,0,0,0,0,0,0,0,0],"id":70,"left_children":[1,3,5,7,9,11,13,-1,-1,-1,-1,-1,-1,-1,-1],"loss_changes":[1.1262304E4,3.1973855E3,2.2832944E3,8.6306104E2,4.9746716E2,6.290039E2,4.716626E2,0E0,0E0,0E0,0E0,0E0,0E0,0E0,0E0],"parents":[2147483647,0,0,1,1,2,2,3,3,4,4,5,5,6,6],"right_children":[2,4,6,8,10,12,14,-1,-1,-1,-1,-1,-1,-1,-1],"split_conditions":[1.65E-1,1.1E-2,3.94E-1,-1.19E-1,9.1E-2,2.64E-1,6.44E-1,-1.6162356E-3,-7.781612E-4,-3.2934733E-4,4.665607E-5,4.6234537E-4,9.87295E-4,1.8492548E-3,3.859832E-3],"split_indices":[2,2,2,2,2,2,3,0,0,0,0,0,0,0,0],"split_type":[0,0,0,0,0,0,0,0,0,0,0,0,0,0,0],"sum_hessian":[3.303007E6,2.161035E6,1.141972E6,7.53457E5,1.407578E6,1.011643E6,1.30329E5,1.54602E5,5.98855E5,7.09839E5,6.97739E5,6.63755E5,3.47888E5,1.17373E5,1.2956E4],"tree_param":{"num_deleted":"0","num_feature":"20","num_nodes":"15","size_leaf_vector":"1"}},{"base_weights":[-4.7283816E-6,-5.8592338E-2,5.7081956E-2,-1.3266969E-1,-4.1380096E-2,3.288189E-2,1.3719542E-1,-3.1685336E-3,-1.246315E-3,-6.317609E-4,-2.3854004E-4,1.3682051E-4,5.678432E-4,1.1528354E-3,2.4596052E-3],"categories":[],"categories_nodes":[],"categories_segments":[],"categories_sizes":[],"default_left":[0,0,0,0,0,0,0,0,0,0,0,0,0,0,0],"id":71,"left_children":[1,3,5,7,9,11,13,-1,-1,-1,-1,-1,-1,-1,-1],"loss_changes":[1.1044065E4,2.0778203E3,3.2424907E3,4.5485596E2,5.051399E2,5.8947E2,9.246738E2,0E0,0E0,0E0,0E0,0E0,0E0,0E0,0E0],"parents":[2147483647,0,0,1,1,2,2,3,3,4,4,5,5,6,6],"right_children":[2,4,6,8,10,12,14,-1,-1,-1,-1,-1,-1,-1,-1],"split_conditions":[1.08E-1,-6.5E-2,2.86E-1,-2.94E-1,2.9E-2,1.87E-1,4.67E-1,-3.1685336E-3,-1.246315E-3,-6.317609E-4,-2.3854004E-4,1.3682051E-4,5.678432E-4,1.1528354E-3,2.4596052E-3],"split_indices":[2,2,2,2,2,2,2,0,0,0,0,0,0,0,0],"split_type":[0,0,0,0,0,0,0,0,0,0,0,0,0,0,0],"sum_hessian":[3.302084E6,1.629619E6,1.672465E6,3.07256E5,1.322363E6,1.284465E6,3.88E5,1.2847E4,2.94409E5,5.89384E5,7.32979E5,7.12303E5,5.72162E5,3.22942E5,6.5058E4],"tree_param":{"num_deleted":"0","num_feature":"20","num_nodes":"15","size_leaf_vector":"1"}},{"base_weights":[1.2061661E-5,-4.7768977E-2,6.858648E-2,-1.111789E-1,-2.6610414E-2,4.9422815E-2,1.6770142E-1,-2.121778E-3,-9.927251E-4,-4.772638E-4,-7.224765E-5,2.9843888E-4,7.72095E-4,1.5438839E-3,3.7916794E-3],"categories":[],"categories_nodes":[],"categories_segments":[],"categories_sizes":[],"default_left":[0,0,0,0,0,0,0,0,0,0,0,0,0,0,0],"id":72,"left_children":[1,3,5,7,9,11,13,-1,-1,-1,-1,-1,-1,-1,-1],"loss_changes":[1.0824084E4,2.6121118E3,2.5766685E3,5.857422E2,5.975703E2,6.184429E2,6.187158E2,0E0,0E0,0E0,0E0,0E0,0E0,0E0,0E0],"parents":[2147483647,0,0,1,1,2,2,3,3,4,4,5,5,6,6],"right_children":[2,4,6,8,10,12,14,-1,-1,-1,-1,-1,-1,-1,-1],"split_conditions":[1.41E-1,-2.8E-2,3.43E-1,-2E-1,6.2E-2,2.25E-1,6.44E-1,-2.121778E-3,-9.927251E-4,-4.772638E-4,-7.224765E-5,2.9843888E-4,7.72095E-4,1.5438839E-3,3.7916794E-3],"split_indices":[2,2,2,2,2,2,2,0,0,0,0,0,0,0,0],"split_type":[0,0,0,0,0,0,0,0,0,0,0,0,0,0,0],"sum_hessian":[3.303491E6,1.946922E6,1.356569E6,4.87108E5,1.459814E6,1.136777E6,2.19792E5,5.1366E4,4.35742E5,6.98723E5,7.61091E5,6.66883E5,4.69894E5,2.06776E5,1.3016E4],"tree_param":{"num_deleted":"0","num_feature":"20","num_nodes":"15","size_leaf_vector":"1"}},{"base_weights":[1.491221E-5,-4.072714E-2,7.88869E-2,-8.877304E-2,-1.1492392E-2,6.3138664E-2,1.9913018E-1,-1.3952825E-3,-6.7309005E-4,-2.8123276E-4,6.695302E-5,4.556057E-4,9.576762E-4,1.7972164E-3,3.7515783E-3],"categories":[],"categories_nodes":[],"categories_segments":[],"categories_sizes":[],"default_left":[0,0,0,0,0,0,0,0,0,0,0,0,0,0,0],"id":73,"left_children":[1,3,5,7,9,11,13,-1,-1,-1,-1,-1,-1,-1,-1],"loss_changes":[1.06168955E4,3.0600469E3,2.1309966E3,8.9781836E2,4.0968646E2,5.7070825E2,4.451626E2,0E0,0E0,0E0,0E0,0E0,0E0,0E0,0E0],"parents":[2147483647,0,0,1,1,2,2,3,3,4,4,5,5,6,6],"right_children":[2,4,6,8,10,12,14,-1,-1,-1,-1,-1,-1,-1,-1],"split_conditions":[1.67E-1,2E-2,3.94E-1,-8.3E-2,9.8E-2,2.64E-1,6.44E-1,-1.3952825E-3,-6.7309005E-4,-2.8123276E-4,6.695302E-5,4.556057E-4,9.576762E-4,1.7972164E-3,3.7515783E-3],"split_indices":[2,2,2,2,2,2,3,0,0,0,0,0,0,0,0],"split_type":[0,0,0,0,0,0,0,0,0,0,0,0,0,0,0],"sum_hessian":[3.303936E6,2.178574E6,1.125362E6,8.24139E5,1.354435E6,9.95043E5,1.30319E5,2.44938E5,5.79201E5,7.07497E5,6.46938E5,6.46668E5,3.48375E5,1.17379E5,1.294E4],"tree_param":{"num_deleted":"0","num_feature":"20","num_nodes":"15","size_leaf_vector":"1"}},{"base_weights":[-9.6526655E-6,-5.5534773E-2,5.6686584E-2,-1.2722789E-1,-3.859854E-2,3.604084E-2,1.451136E-1,-3.1005268E-3,-1.1953101E-3,-5.927776E-4,-2.0631147E-4,1.7405927E-4,6.347711E-4,1.2648933E-3,2.7500873E-3],"categories":[],"categories_nodes":[],"categories_segments":[],"categories_sizes":[],"default_left":[0,0,0,0,0,0,0,0,0,0,0,0,0,0,0],"id":74,"left_children":[1,3,5,7,9,11,13,-1,-1,-1,-1,-1,-1,-1,-1],"loss_changes":[1.0398256E4,2.0262295E3,2.9836333E3,4.486919E2,5.015498E2,6.774099E2,7.4833545E2,0E0,0E0,0E0,0E0,0E0,0E0,0E0,0E0],"parents":[2147483647,0,0,1,1,2,2,3,3,4,4,5,5,6,6],"right_children":[2,4,6,8,10,12,14,-1,-1,-1,-1,-1,-1,-1,-1],"split_conditions":[1.12E-1,-6.2E-2,3.09E-1,-2.94E-1,3.5E-2,2.02E-1,5.23E-1,-3.1005268E-3,-1.1953101E-3,-5.927776E-4,-2.0631147E-4,1.7405927E-4,6.347711E-4,1.2648933E-3,2.7500873E-3],"split_indices":[2,2,2,2,2,2,2,0,0,0,0,0,0,0,0],"split_type":[0,0,0,0,0,0,0,0,0,0,0,0,0,0,0],"sum_hessian":[3.30306E6,1.668765E6,1.634295E6,3.18884E5,1.349881E6,1.32495E6,3.09345E5,1.2881E4,3.06003E5,6.27579E5,7.22302E5,7.89034E5,5.35916E5,2.70555E5,3.879E4],"tree_param":{"num_deleted":"0","num_feature":"20","num_nodes":"15","size_leaf_vector":"1"}},{"base_weights":[-9.596892E-6,-3.995489E-2,7.739412E-2,-9.763249E-2,-1.6524436E-2,6.187935E-2,1.956399E-1,-1.7849191E-3,-8.421251E-4,-3.7327554E-4,2.3680079E-5,4.4660768E-4,9.3861675E-4,1.7637155E-3,3.7012445E-3],"categories":[],"categories_nodes":[],"categories_segments":[],"categories_sizes":[],"default_left":[0,0,0,0,0,0,0,0,0,0,0,0,0,0,0],"id":75,"left_children":[1,3,5,7,9,11,13,-1,-1,-1,-1,-1,-1,-1,-1],"loss_changes":[1.0212525E4,2.944257E3,2.062624E3,6.8293164E2,6.0890326E2,5.473364E2,4.3837305E2,0E0,0E0,0E0,0E0,0E0,0E0,0E0,0E0],"parents":[2147483647,0,0,1,1,2,2,3,3,4,4,5,5,6,6],"right_children":[2,4,6,8,10,12,14,-1,-1,-1,-1,-1,-1,-1,-1],"split_conditions":[1.67E-1,-6E-3,3.94E-1,-1.6E-1,8.1E-2,2.64E-1,6.44E-1,-1.7849191E-3,-8.421251E-4,-3.7327554E-4,2.3680079E-5,4.4660768E-4,9.3861675E-4,1.7637155E-3,3.7012445E-3],"split_indices":[2,2,2,2,2,2,3,0,0,0,0,0,0,0,0],"split_type":[0,0,0,0,0,0,0,0,0,0,0,0,0,0,0],"sum_hessian":[3.302976E6,2.178652E6,1.124324E6,6.29367E5,1.549285E6,9.93916E5,1.30408E5,8.9584E4,5.39783E5,7.37356E5,8.11929E5,6.46082E5,3.47834E5,1.17441E5,1.2967E4],"tree_param":{"num_deleted":"0","num_feature":"20","num_nodes":"15","size_leaf_vector":"1"}},{"base_weights":[-3.7448648E-5,-4.4132873E-2,6.8671815E-2,-1.04133256E-1,-2.3033103E-2,5.164209E-2,1.723078E-1,-2.0517842E-3,-9.310851E-4,-4.3775636E-4,-4.5552984E-5,3.248837E-4,7.953386E-4,1.5751804E-3,3.6488103E-3],"categories":[],"categories_nodes":[],"categories_segments":[],"categories_sizes":[],"default_left":[0,0,0,0,0,0,0,0,0,0,0,0,0,0,0],"id":76,"left_children":[1,3,5,7,9,11,13,-1,-1,-1,-1,-1,-1,-1,-1],"loss_changes":[1.0010567E4,2.5478237E3,2.2794644E3,5.832617E2,5.70667E2,5.9261255E2,5.190962E2,0E0,0E0,0E0,0E0,0E0,0E0,0E0,0E0],"parents":[2147483647,0,0,1,1,2,2,3,3,4,4,5,5,6,6],"right_children":[2,4,6,8,10,12,14,-1,-1,-1,-1,-1,-1,-1,-1],"split_conditions":[1.48E-1,-2.2E-2,3.61E-1,-2E-1,6.6E-2,2.34E-1,6.44E-1,-2.0517842E-3,-9.310851E-4,-4.3775636E-4,-4.5552984E-5,3.248837E-4,7.953386E-4,1.5751804E-3,3.6488103E-3],"split_indices":[2,2,2,2,2,2,2,0,0,0,0,0,0,0,0],"split_type":[0,0,0,0,0,0,0,0,0,0,0,0,0,0,0],"sum_hessian":[3.304073E6,2.012509E6,1.291564E6,5.23592E5,1.488917E6,1.109285E6,1.82279E5,5.1506E4,4.72086E5,7.0147E5,7.87447E5,6.57661E5,4.51624E5,1.6928E5,1.2999E4],"tree_param":{"num_deleted":"0","num_feature":"20","num_nodes":"15","size_leaf_vector":"1"}},{"base_weights":[1.46614E-5,-5.5550113E-2,5.3480916E-2,-1.2705591E-1,-3.9586067E-2,3.1693835E-2,1.3278855E-1,-3.0314138E-3,-1.1904561E-3,-6.0656335E-4,-2.3354577E-4,1.3553533E-4,5.584585E-4,1.1358272E-3,2.472337E-3],"categories":[],"categories_nodes":[],"categories_segments":[],"categories_sizes":[],"default_left":[0,0,0,0,0,0,0,0,0,0,0,0,0,0,0],"id":77,"left_children":[1,3,5,7,9,11,13,-1,-1,-1,-1,-1,-1,-1,-1],"loss_changes":[9.817328E3,1.8498091E3,2.9098926E3,4.1712158E2,4.530581E2,5.788257E2,7.977173E2,0E0,0E0,0E0,0E0,0E0,0E0,0E0,0E0],"parents":[2147483647,0,0,1,1,2,2,3,3,4,4,5,5,6,6],"right_children":[2,4,6,8,10,12,14,-1,-1,-1,-1,-1,-1,-1,-1],"split_conditions":[1.07E-1,-6.8E-2,2.93E-1,-2.94E-1,2.6E-2,1.91E-1,4.92E-1,-3.0314138E-3,-1.1904561E-3,-6.0656335E-4,-2.3354577E-4,1.3553533E-4,5.584585E-4,1.1358272E-3,2.472337E-3],"split_indices":[2,2,2,2,2,2,2,0,0,0,0,0,0,0,0],"split_type":[0,0,0,0,0,0,0,0,0,0,0,0,0,0,0],"sum_hessian":[3.304561E6,1.620479E6,1.684082E6,2.95751E5,1.324728E6,1.321144E6,3.62938E5,1.2867E4,2.82884E5,5.76441E5,7.48287E5,7.54471E5,5.66673E5,3.10785E5,5.2153E4],"tree_param":{"num_deleted":"0","num_feature":"20","num_nodes":"15","size_leaf_vector":"1"}},{"base_weights":[1.0284871E-6,-3.925733E-2,7.4269794E-2,-9.570216E-2,-1.6789936E-2,5.934006E-2,1.9012585E-1,-1.6792578E-3,-8.1313704E-4,-3.7364237E-4,1.26558425E-5,4.1670186E-4,8.92473E-4,1.714258E-3,3.6045944E-3],"categories":[],"categories_nodes":[],"categories_segments":[],"categories_sizes":[],"default_left":[0,0,0,0,0,0,0,0,0,0,0,0,0,0,0],"id":78,"left_children":[1,3,5,7,9,11,13,-1,-1,-1,-1,-1,-1,-1,-1],"loss_changes":[9.633854E3,2.7412263E3,1.9763433E3,6.395293E2,5.743594E2,5.3488403E2,4.15396E2,0E0,0E0,0E0,0E0,0E0,0E0,0E0,0E0],"parents":[2147483647,0,0,1,1,2,2,3,3,4,4,5,5,6,6],"right_children":[2,4,6,8,10,12,14,-1,-1,-1,-1,-1,-1,-1,-1],"split_conditions":[1.65E-1,-8E-3,3.94E-1,-1.5E-1,7.8E-2,2.58E-1,6.44E-1,-1.6792578E-3,-8.1313704E-4,-3.7364237E-4,1.26558425E-5,4.1670186E-4,8.92473E-4,1.714258E-3,3.6045944E-3],"split_indices":[2,2,2,2,2,2,3,0,0,0,0,0,0,0,0],"split_type":[0,0,0,0,0,0,0,0,0,0,0,0,0,0,0],"sum_hessian":[3.304163E6,2.161564E6,1.142599E6,6.15426E5,1.546138E6,1.012168E6,1.30431E5,1.02236E5,5.1319E5,7.22662E5,8.23476E5,6.36256E5,3.75912E5,1.1753E5,1.2901E4],"tree_param":{"num_deleted":"0","num_feature":"20","num_nodes":"15","size_leaf_vector":"1"}},{"base_weights":[1.1455842E-5,-4.8725955E-2,5.8674425E-2,-1.1350565E-1,-3.1110207E-2,4.005767E-2,1.478411E-1,-2.4301924E-3,-1.0424212E-3,-5.050578E-4,-1.2714604E-4,2.2182742E-4,6.688773E-4,1.3164134E-3,2.9399176E-3],"categories":[],"categories_nodes":[],"categories_segments":[],"categories_sizes":[],"default_left":[0,0,0,0,0,0,0,0,0,0,0,0,0,0,0],"id":79,"left_children":[1,3,5,7,9,11,13,-1,-1,-1,-1,-1,-1,-1,-1],"loss_changes":[9.444646E3,2.059001E3,2.4884067E3,4.6278857E2,5.061388E2,5.947461E2,6.129844E2,0E0,0E0,0E0,0E0,0E0,0E0,0E0,0E0],"parents":[2147483647,0,0,1,1,2,2,3,3,4,4,5,5,6,6],"right_children":[2,4,6,8,10,12,14,-1,-1,-1,-1,-1,-1,-1,-1],"split_conditions":[1.26E-1,-4.7E-2,3.27E-1,-2.47E-1,5E-2,2.15E-1,5.69E-1,-2.4301924E-3,-1.0424212E-3,-5.050578E-4,-1.2714604E-4,2.2182742E-4,6.688773E-4,1.3164134E-3,2.9399176E-3],"split_indices":[2,2,2,2,2,